%YAML:1.0
detektor1: !!opencv-object-detector-hog
   winSize: [ 64, 128 ]
   blockSize: [ 16, 16 ]
   blockStride: [ 8, 8 ]
   cellSize: [ 8, 8 ]
   nbins: 9
   derivAperture: 1
   winSigma: 4.
   histogramNormType: 0
   L2HysThreshold: 2.0000000000000001e-001
   gammaCorrection: 1
   nlevels: 64
   SVMDetector: [-0.00417842, -0.03506507, 0.003825917, 0.06352863, 0.07201092, 0.0917933, 0.006337955, -0.0226638, -0.01322042, -0.03056332, -0.04530104, 0.001289657, 0.06975356, 0.0480518, 0.08512576, 0.009188022, -0.02923276, -0.009243106, 0.03609792, 0.00213342, 0.01306047, 0.0531023, 0.04505147, 0.07734323, 0.008829405, 0.008313947, 0.01668159, 0.007449326, 0.005915114, 0.02048931, 0.06402274, 0.008162891, 0.06809687, -0.02296781, -0.02605522, -0.001472443, -0.01699487, -0.01358863, 0.02153199, 0.07857718, 0.04532278, 0.08034942, 0.04135483, -0.0225394, -0.0150688, -0.02220812, -0.003841002, 0.01051044, 0.08140038, 0.03771726, 0.05588134, 0.004037737, -0.04120301, -0.01723967, 0.03053768, -0.009113263, 0.01036764, 0.05704261, 0.04104762, 0.07786638, -0.006598281, -0.01928049, 0.02088341, 0.00649065, -0.02850614, -0.02429644, 0.0327328, 0.0292763, 0.06522075, -0.009182476, -0.03346644, -7.587142E-06, 0.01443504, 0.0003019591, 0.01840385, 0.05848859, 0.04293593, 0.0512429, -0.01388817, -0.01488572, 0.02574022, 0.02176046, -0.01255673, 0.01600247, 0.03440237, 0.02017701, 0.05074385, 0.005300975, -0.007083301, 0.01230272, 0.02229491, -0.02438463, -0.006432347, 0.03350342, 0.03667985, 0.04756632, -0.01061188, -0.02199681, 0.02950943, 0.01428803, -0.01208892, 0.0009939619, 0.01726362, 0.009536405, 0.02954387, -0.005154524, -0.00943119, 0.02255742, 0.01039186, -0.008812943, 0.01333911, 0.03543601, 0.02024957, 0.05879839, 0.02741597, -0.001968449, 0.003157644, 0.008655254, 0.01010753, 0.02756366, 0.04848848, 0.05111084, 0.06093333, 0.01944881, -0.01124118, -0.009440013, 0.0215071, -0.02182689, 0.01036044, 0.02700512, 0.004481232, 0.02974063, -0.01110841, -0.01604746, 0.01406482, 0.01044053, -0.02231234, 0.02482172, 0.05695188, 0.0225071, 0.03012078, -0.02733323, -0.02305647, 0.003959525, 0.02137331, 0.005821794, 0.0261534, 0.04596076, 0.04698599, 0.03317665, 0.000425886, -0.02679588, 0.00316938, 0.01181457, -0.001408721, 0.01492735, 0.03426867, 0.0311057, 0.03612531, -0.01659171, -0.01580708, -0.001626655, 0.02292717, -0.01924096, 0.0169659, 0.03769269, 0.03497455, 0.01951594, -0.03872336, -0.0295104, 0.02143366, 0.01823377, -0.01270726, -0.008893911, 0.02129641, 0.01259416, 0.02643345, -0.0332294, -0.03077151, -0.003942742, 0.04664601, 0.02433029, 0.04232493, 0.05107521, 0.04521168, 0.03026247, -0.008282474, 0.01056501, 0.02611558, 0.03448113, 0.006601651, 0.03429789, 0.01006824, 0.01059222, 0.0360691, -0.007705148, -0.01438226, 0.01580828, 0.04635231, -0.00516643, -0.01205067, 0.02139286, -0.01021629, 0.02005583, -0.0184537, -0.04140894, 0.02225815, -0.008456784, -0.03421138, -0.02334298, -0.01713319, -0.02202653, -0.007467106, -0.02823208, -0.04845192, -0.001994909, 0.02712124, 0.01033839, 0.03099208, 0.02148088, 0.03406131, 0.04937248, 0.01073145, 0.01314883, 0.03340092, 0.00185612, -0.002517704, 0.02764358, 0.01769316, 0.01083507, 0.02975065, 0.02398822, 0.03431607, -0.001505078, 0.008763926, 8.673015E-05, -0.0003414499, 0.007709221, 0.02288133, 0.01840365, -0.01378259, -0.0122537, 0.009147151, -0.02661786, -0.002924262, 0.008127092, 0.01048653, -0.002164081, 0.02652116, -0.02105272, -0.02343186, -0.03570507, 0.002136421, -0.001489182, 0.03101465, 0.04983791, 0.03578584, 0.0332623, 0.02924473, 0.02427362, 0.01222238, -0.02444386, -0.01453992, -0.006575129, 0.03354015, 0.03419377, 0.02518478, 0.02984074, -0.01039056, -0.004268147, -0.01279471, -0.03087838, -0.0007736007, 0.02600994, -0.005061993, 0.02337766, -0.00985876, -0.01992285, -0.01103647, -0.03282025, -0.04079775, -0.0132087, 0.005348234, 0.01731487, -0.004543031, -0.02843956, -0.02939367, -0.01690394, -0.02485152, 0.00767888, 0.005107004, 0.04043951, 0.05004399, 0.03939897, 0.03936963, 0.01568663, -0.01157222, -0.03101943, 0.0298589, 0.02096722, 0.03316867, 0.04614233, 0.0244984, 0.006418274, -0.01980437, -0.04075448, -0.01180426, -0.01901983, -0.004185696, 0.008739735, 0.0151292, 0.01655762, -0.007064049, -0.002253915, 0.001828109, -0.0369779, -0.0386244, -0.02110061, -0.02052656, 0.01026611, 0.01484596, -0.01366724, -0.006792556, -0.01628479, -0.0361857, 0.02985178, 0.01685211, 0.02819955, 0.04278793, 0.02908927, -0.01489703, -0.006768908, -0.02525063, -0.05409104, -0.01112257, 0.02382555, 0.004482984, 0.03582082, 0.04726414, 0.02238526, 0.002871655, -0.05105152, -0.02272965, -0.01376313, 0.00191824, 0.0006265007, 0.02074431, 0.007910018, -0.01613103, -0.006001465, 0.008489056, -0.03738665, -0.006512338, 0.01497271, 0.01851559, 0.01063668, -0.01311153, -0.01233077, -0.0190362, -0.02842512, -0.05126932, -0.001772866, 0.03392539, 0.02261616, 0.05006436, 0.06230913, 0.02857182, -0.00973674, -0.07277409, -0.06255948, -0.00222408, 0.0170031, 0.0196588, 0.04316201, 0.04418948, 0.03245679, -0.03375299, -0.08517459, -0.03613314, -0.01081556, 0.03756019, 0.02943538, 0.02767241, 0.03159658, -0.008450343, -0.01937752, -0.04569277, -0.05207123, -0.01788206, 0.01302607, 0.009583867, 0.009074454, 0.01998087, -0.01579362, -0.03488648, -0.05387246, -0.0405186, -0.01777723, 0.01458502, 0.01811332, 0.04231466, 0.04781731, 0.03381749, -0.009908914, -0.0480257, -0.04646691, -0.01395951, -0.00261103, -0.0008351967, 0.05118042, 0.0641467, 0.03558017, -8.021745E-05, -0.05101166, -0.02508273, 0.0001737166, 0.00908265, 0.01384464, 0.001832762, 0.01670085, -0.007798452, -0.02148233, -0.02506444, -0.03607749, -0.01094579, -0.03137398, 0.002773415, 0.01849208, 0.00891219, -0.001441578, -0.02021543, -0.03047743, -0.03285583, -0.002090643, -0.006134927, -0.001518277, 0.05068711, 0.06185792, 0.0280809, -0.00856436, -0.03711139, 0.01491795, 0.008836117, 0.01698943, 0.0251184, 0.03048766, 0.03973775, 0.02480224, 0.00940622, 0.005652861, -0.02705564, -0.006583866, -0.01818977, -0.003120181, 0.02979532, 0.01326792, 0.02045575, -0.02046728, -0.04261857, 0.006675411, -0.010651, 0.01248129, -0.01223734, 0.009335861, 0.008668426, 0.009187298, -0.01627979, -0.01932141, 0.02829563, -0.001736128, -0.02339547, 0.004829202, 0.02210248, 0.02523548, 0.005009772, -0.009585642, 0.01980405, 0.03421038, -0.01509928, -0.03342988, -0.0008927673, 0.04361133, 0.05841533, 0.02984793, 0.02211109, 0.04237082, 0.006928578, -0.006417334, -0.02944441, -0.02141559, 0.003406869, -0.00666103, -0.0227687, -0.03754201, -0.008729856, 0.009102933, 0.01453283, -0.02462382, -0.01384923, 0.02808313, 0.01733721, -0.01063841, 0.007895507, 0.02082306, 0.02341076, -0.04682608, -0.04458281, -0.02123942, 0.03295059, 0.02895477, 0.01260859, 0.01597724, 0.02538893, 0.01986689, -0.03640422, -0.01821114, 0.005533192, 0.02773849, 0.02834011, 0.005745813, 0.00809947, 0.04873708, 0.01013008, -0.01557633, -0.04005037, -0.007273467, 0.0195528, 0.0167532, 0.001451553, 0.0166198, 0.01426481, 0.02497631, -0.002318402, -0.01606574, 0.01417908, -0.006572938, 0.01889155, 0.001346938, -0.005541863, 0.02187579, 0.005337842, 0.009656185, 0.00628658, 0.0457632, 0.03799033, 0.06987485, 0.0005869484, -0.01679931, -0.0253674, -0.01029979, -0.004422329, -0.006963052, 0.0406125, 0.00706506, 0.05900626, -0.03394969, -0.05226929, -0.03182543, 0.04369673, 0.04106406, 0.02833917, 0.07867602, 0.07332241, 0.0762997, 0.0165256, 0.01921624, 0.03638756, 0.00345775, -0.003820238, -0.003618319, 0.05462505, 0.05918417, 0.08467109, -0.0005871105, -0.0002852908, 0.004362811, 0.03041229, -0.01272234, -0.002896771, 0.04564132, 0.02083042, 0.09011304, -0.008945849, -0.03048972, 0.009449977, 0.01405082, -0.02459488, -0.02729975, 0.0004412349, 0.0004752597, 0.06540621, -0.008314419, -0.0333172, 0.02012785, 0.05002575, 0.006277767, 0.01304122, 0.05468758, 0.04976407, 0.08070073, 0.007171934, 0.005846741, 0.04166784, 0.03102309, 0.003374901, 0.0116453, 0.01216721, 0.01908924, 0.05580674, 0.006522464, 0.0002333075, 0.04101712, 0.03892767, 0.01245409, -0.01010639, 0.02068841, 0.03841711, 0.06431311, -3.309397E-06, -0.02239964, 0.04045414, 0.04187197, -0.003408658, -0.02785756, 0.0008496338, -0.00469643, 0.03556765, -0.01169195, -0.0186325, 0.03741794, 0.05566575, 0.03501738, 0.01457231, 0.02307363, 0.03966988, 0.07563694, 0.01960685, 0.01355571, 0.06032194, 0.04646759, 0.02736769, -0.02888171, 0.0153091, 0.0114796, 0.05316165, -0.01099761, -0.02250946, 0.02507262, 0.05722371, -0.0002677963, -0.006882791, 0.01432489, 0.01469804, 0.04457452, -0.01414814, -0.006049184, 0.04266155, 0.03870567, -0.004734541, 0.02689145, 0.04224001, 0.02331658, 0.05505362, 0.000801967, -0.01202711, 0.03648454, 0.03849016, 0.007724977, -0.01949322, 0.02180885, 0.04361086, 0.05290836, 0.004748842, -0.01707734, 0.02637712, 0.01308839, 0.008569138, 0.004909673, 0.03867881, 0.04578151, 0.0504198, 0.003899833, -0.03304107, 0.01384515, 0.03696989, -0.006246894, 0.01404547, 0.02691796, 0.02759641, 0.03273233, -0.006737259, -0.01180439, 0.05335866, 0.02125767, -0.01169855, 0.0002223454, -0.0007922775, 0.005575973, 0.02849363, -0.008843812, 0.007034392, 0.04725526, -0.002637363, -0.001246034, 0.01682547, 0.03966963, 0.02553582, 0.03573458, -0.0108291, -0.04071756, 0.03345846, -0.01764021, -0.0288531, 0.001424886, 0.001500351, 0.01140089, 0.01120121, -0.00418865, -0.01571566, 0.01208779, 0.06134051, 0.004606015, 0.001834206, 0.007875342, 0.01384893, 0.03081195, -0.005068658, -0.006216393, 0.06022457, 0.01853989, -0.02068332, -0.03259524, -0.02407572, -0.0001556505, -0.005365615, -0.02469214, -0.0426602, 0.00985545, 0.02996836, 0.01978516, 0.03357869, -0.001069518, 0.01303977, 0.01230377, 0.01096703, 0.009313689, 0.0391845, -0.01228321, 0.001819084, 0.005926689, -0.01718917, -0.0217955, -0.03390341, -0.01738914, -0.02559461, -0.007088062, 0.03147418, 0.0141343, -0.005913186, 0.001508216, 0.01704742, 0.01497052, 0.004920128, -0.0006584539, 0.0299222, -0.002422692, -0.007088, -0.01665738, 0.01444314, 0.02111603, 0.02579938, -0.01451036, -0.01031449, -0.00396785, 0.02244509, 0.02968207, 0.02288664, 0.02535365, 0.006946779, -0.01027017, 0.01071178, 0.01345796, 0.03016567, -0.006980964, 0.01165453, -0.01796098, 0.01520038, -0.006103015, -0.01578609, -0.008939539, -0.004937632, 0.001703579, -0.003037747, -0.006510656, 0.001682084, 0.02815093, 0.03963724, 0.04678944, -0.0009606887, -0.01550845, 0.009070917, 0.001148372, -0.02035567, -0.01379991, 0.004935337, 0.03593604, -0.001451806, -0.03898659, -0.01939979, 0.004105077, -0.00298053, 0.008104816, 0.00907297, 0.01778643, 0.03249399, 0.02740989, -0.0007019438, 0.006473025, 0.007061011, -0.02978485, -0.02025322, -0.02019219, -0.008414778, 0.003473949, -0.01325087, -0.03558652, -0.005858196, -0.04167499, 0.04617824, -0.01495731, -0.0112667, 0.0105409, 0.02669646, 0.009202526, -0.01246887, -0.001041011, 0.05155816, 0.01876739, -0.0372823, -0.03331584, -0.02267857, 0.03307404, 0.03561851, 0.0149494, -0.001878021, 0.03944498, -0.006340689, -0.01044311, -0.03379274, 0.009421903, -0.0002491574, -0.01100759, -0.0290749, -0.02601012, -0.009414241, -0.01403075, -0.03413665, -0.02528754, -0.006925357, 0.01972461, 0.01780195, -0.0165181, -0.06194938, 0.005187844, 0.01230277, -0.03403778, -0.01342773, -0.009928239, 0.03443447, 0.018384, 0.01343254, 5.253745E-05, 0.03111024, 0.01325076, -0.003427888, 0.01809623, 0.01054952, 0.0142676, -0.01839185, -0.004695625, -0.01431178, 0.01414326, -0.01283426, -0.02985608, -0.02970826, -0.01558535, 0.01630869, 0.02485488, -0.000344971, -0.03951444, 0.0080569, -0.002641269, -0.03787392, -0.05039746, -0.03810862, -0.01359246, -0.02823485, -0.01510122, -0.02513061, 0.01580424, -0.007038352, -0.008058815, 0.01846666, 0.01312718, 0.02378326, -0.00261277, -0.01159922, -0.00604889, -0.01251953, -0.02512944, -0.005282177, -0.005390281, -0.00369085, 0.02082921, 0.02158561, -0.01498858, -0.009835962, -0.03043175, 0.006155874, -0.03753554, -0.01935159, -0.03270141, 0.006139152, -0.001087737, -0.01799544, -0.01602979, 0.0102298, -0.005784113, -0.03806777, -0.01410186, -0.02315896, 0.00576127, 0.03622581, -0.010646, -0.00558152, -0.01891425, 0.00395889, 0.009728978, -0.0139902, -0.02321671, -0.00463845, 0.01053542, -0.01275541, -0.0009972174, -0.001893703, -0.01529698, 0.00242959, -0.03119944, -0.0201244, 0.01455026, -0.01097407, -0.007575463, -0.001926793, -0.0024861, 0.0005019866, -0.01747172, -0.03181536, -0.01830936, 0.006635072, 0.03507631, 0.02357662, 0.04841103, 0.0127107, -0.0223233, -0.009211791, -0.04256178, -0.009730097, -0.01760015, -0.0002951764, 0.008310279, 0.0242177, -0.007311317, -0.006890732, 0.0009638072, -0.003629689, -0.001725158, 0.03056535, 0.002498651, -0.0006766295, 0.005211945, -0.01139413, -0.009795866, -0.005367179, 0.003390602, -0.01334423, 0.0138646, 0.01060619, 0.02978683, -0.001077115, -0.003445258, -0.03576516, -0.0119742, -0.01425947, -0.01308162, 0.009091121, 0.01675406, 0.01866703, 0.009780831, -0.01764705, 0.006385423, -0.02646114, -0.0273154, -0.001734671, 0.0009329174, 0.009126251, 0.01916684, -0.01961323, -0.00247919, 0.008310731, -0.004286407, -0.0273388, -0.03360752, -0.001130137, 0.000715765, 0.01224586, 0.0009802791, 0.008197272, 0.02548668, 0.0313986, -0.008781176, -0.006719164, 0.01129094, 0.0353887, 0.01721461, 0.02441438, 0.01865897, 0.006693242, -0.02778432, -0.05349601, -0.0318241, -0.02270363, -0.01037379, 0.003531685, -0.006947871, -0.01462156, 0.028062, 0.01818559, -0.01723469, -0.01183042, 0.0007670822, 0.01851132, 0.00376015, 0.006086385, 0.001348062, 0.01667675, 0.01916627, -0.004092231, 0.005118918, 0.03215647, 0.001457852, -0.001262467, 0.00420042, 0.01181682, 0.03345517, 0.01212549, -0.008561444, 0.01051459, 0.01010485, 0.02722965, 0.00880311, 0.008147745, 0.02816312, 0.00361878, 0.004916273, -0.01458477, -0.004514576, 0.003212619, -0.02479963, -0.0104332, -0.01482514, 0.0005875544, -0.001559193, -0.01754322, -0.009016793, -0.007553563, -9.587027E-06, 0.01330691, -0.006499968, 0.01753298, 0.02723581, 0.03822687, 0.03168026, 0.01504298, 0.07252108, 0.03457562, 0.05246613, 0.002525796, 0.0002920634, 0.03162598, 0.01503802, -0.008762402, -0.03516594, 0.02765803, 0.03537158, 0.05751722, -0.0124383, -0.00154165, 0.01208762, 0.0634141, 0.03864488, 0.01420649, 0.07270338, 0.008765908, 0.05812117, 0.005099977, 0.01534767, 0.03756185, 0.03990148, 0.007573977, -0.03259015, 0.04130768, 0.003899518, 0.04197683, -0.007483308, -0.006372721, 0.02542061, 0.0499504, 0.00897569, -0.0007546322, 0.03587538, 0.04594156, 0.05344923, -0.002390065, 0.002836094, 0.04295561, 0.02755161, -0.009044065, -0.005932093, 0.01509109, 0.02216571, 0.01312004, -0.03013831, -0.01553797, 0.04721187, 0.05771575, 0.02519873, 0.004168243, 0.0420021, 0.04651048, 0.07120912, 0.01402627, -0.00416122, 0.05944077, 0.01299371, 0.01584477, -0.0006179797, 0.04635502, 0.04014101, 0.06354094, -0.009124394, -0.02998651, 0.02599944, 0.04367859, 0.02997257, 0.0259819, 0.03669929, 0.05434408, 0.03876987, -0.01103, -0.0028909, 0.06326435, 0.03192084, 0.03102211, -0.006103255, 0.02953472, 0.03634456, 0.03125289, -0.01632874, -0.02575102, 0.01883223, 0.03555027, 0.03788327, 0.01943164, 0.05725292, 0.06830966, 0.07126498, 0.02180121, 7.503357E-05, 0.0470553, 0.01488695, 0.02254876, 0.00618895, 0.03359726, 0.03886847, 0.04247901, 0.01417643, -0.02399219, 0.004214711, 0.02335538, 0.01332401, -0.01447742, 0.02184353, 0.03022072, 0.0209552, -0.008948511, -0.02917713, 0.002471082, 0.0164609, 0.02172932, 0.003236654, 0.02949971, 0.03970041, 0.008102477, -0.008327806, -0.01755888, 0.02882005, 0.05247887, 0.01347798, 0.008345015, 0.01808408, 0.03502021, 0.01792012, -0.008908565, -0.009027413, 0.04440473, 0.04585408, 0.05013811, 0.02535547, 0.03513925, 0.04852988, 0.04135117, 0.02290114, 0.04918018, 0.04891174, 0.00685144, 0.02910293, 0.027674, 0.03367865, 0.02465059, 0.00953454, -0.01589728, -0.02270472, 0.02138023, -0.0042041, 0.02360314, 0.02549364, -0.004257028, 0.008603025, -0.01450261, -0.03711266, -0.04198262, -0.001780394, 0.04304316, 0.06981027, 0.05731659, 0.06915684, 0.03966518, 0.03474883, 0.02523206, 0.03638693, 0.04073583, 0.0007917053, 0.06172493, 0.0657497, 0.03089478, -0.01488564, -0.0003616215, -0.00917872, -0.008191741, -0.02140813, 0.04121101, 0.04478854, 0.03053266, -0.006996762, 0.0265012, 0.009008308, -0.008362348, -0.006085139, 0.02064561, 0.02381492, 0.03047017, 0.0027877, -0.03540961, -0.03363597, -0.03048945, -0.0109645, -0.00617234, 0.01921583, 0.03167721, 0.07389492, 0.06086096, 0.003912603, -0.007141642, 0.0113524, -0.003467802, 0.01537406, 0.02565922, 0.0004911951, 0.03414338, 0.006350183, -0.03286275, -0.0241288, -0.008768625, 0.004205905, 0.04095466, 0.01344306, 0.04452592, 0.06149929, 0.02836317, -0.004753614, -0.02233195, -0.02706953, 0.007698646, 0.0258238, 0.03969449, 0.003382595, 0.02442507, -0.03266693, -0.02651573, -0.01118803, -0.03397988, -0.04348177, -0.0270998, 0.01113149, 0.05225045, 0.08107941, 0.0280498, -0.008565943, -0.009484833, 0.01955298, 0.03321495, 0.07228883, 0.05759852, 0.02197552, 0.06645122, 0.006651765, -0.03616743, -0.02068811, -0.04341939, -0.03338782, -0.005746729, 0.02761118, 0.03610944, 0.01760077, -0.007530501, -0.003103054, 0.02876398, -0.0008435503, -0.01758146, -0.01244891, 0.03316809, 0.007334532, -0.009959587, -0.01338428, -0.0114111, -0.003512109, -0.04260363, -0.03660688, -0.007132133, 0.008604736, 0.054585, 0.05868536, 0.002146768, -0.01835536, -0.001088121, -0.02632474, -0.02498241, -0.01302687, 0.06398235, 0.04952839, 0.02641565, -0.01473157, -0.03675314, -0.02268547, -0.04861074, -0.01905744, -0.02426161, 0.05344979, 0.03777292, -0.01379639, -0.03937604, -0.01552499, 0.001762037, -0.03409664, -0.02732141, -0.003298095, 0.04663989, 0.002594755, -0.0319789, -0.05898832, -0.04189463, -0.01067619, -0.006082647, -0.04651719, -0.02714525, 0.02013847, 0.08969759, 0.01426757, -0.04032701, -0.03966397, -0.02024058, -0.04125974, 0.004288812, 0.02360162, 0.1027907, 0.05645315, -0.004933554, -0.0699539, -0.08371285, -0.04838033, -0.04101172, -0.04744439, 0.002749298, 0.06674246, 0.01644604, -0.04195547, -0.07361554, -0.04549379, -0.003742295, 0.007876108, -0.02577307, -0.01721595, 0.02595999, 0.01200363, -0.05889736, -0.08156841, -0.05716529, -0.02848772, -0.02664459, -0.02849982, -0.0166682, 0.02805396, 0.08154271, -0.02406332, -0.06780772, -0.06906728, -0.04358649, -0.01031922, -0.04117675, -0.006909618, 0.09199534, 0.0615559, -0.01380856, -0.05561437, -0.07041628, -0.04220857, -0.04147428, -0.02955389, -0.01530586, 0.06320886, 0.005476963, -0.05155333, -0.05569264, -0.05599225, -0.01542543, -0.01727203, -0.03575054, -0.02552903, 0.03257124, 0.001571877, -0.04526414, -0.03196815, -0.04895242, -0.00533798, 0.01277609, -0.01759545, -0.006277238, 0.002517665, 0.04133378, -0.008608119, -0.03307502, -0.05100496, -0.01491132, -0.03365342, -0.04251597, 0.0002527412, 0.05465082, 0.03112752, 0.01437263, 0.01220054, -0.03143081, 0.009243639, 0.003283844, -0.01121765, 0.001992858, 0.04507563, -0.0177299, -0.0370149, -0.03052766, -0.02652296, -0.01907791, 0.005915195, -0.004937272, 0.00958232, 0.004980858, -0.04354026, -0.03041059, -0.03874765, -0.02202935, -0.03403968, 0.004333693, -0.0136101, -0.002959412, -0.02700093, 0.02292206, 0.03413155, 0.02661745, -0.0245366, -0.02221511, 0.009459679, -0.00049061, 0.003162366, 0.02762181, 0.01711547, 0.01342087, 0.0004965052, -0.02621217, -0.04518121, 0.01754955, 0.01559032, 0.008602404, 0.003627771, -0.03459293, -0.01693684, -0.01493716, -0.01623867, 0.006236244, 0.03084664, 0.001372558, -0.008635873, -0.01652131, 0.002168112, -0.02238748, -0.01649208, -0.02764182, 0.001413431, 0.01459974, 0.00635546, -0.0187656, -0.009449209, 0.005271821, -0.0006199131, 0.006742508, -0.01704076, -0.01021575, 0.01668121, 0.02346531, 0.01298018, -0.006628454, -0.009391424, -0.01420171, 0.00791926, -0.01299767, 0.009939815, 0.01272081, 0.005881506, 0.01700287, -0.01031387, 0.02825097, -0.004359254, -0.0395916, -0.02207791, 0.002525015, 0.01627928, -0.0004206177, 0.004352074, 0.01504348, 0.04097868, -0.008752307, -0.02784404, 0.006426824, 0.01214879, 0.02532207, -0.001258669, 0.01127901, 0.01102741, -0.009546346, -0.01332328, -0.008195861, 0.006368694, 0.003927158, 0.02937815, -0.001225027, 7.92498E-05, -0.006033477, 0.01205274, -0.01284602, -0.005088906, 0.0108718, 0.01540675, 0.041536, -0.0009365882, 0.006815668, -0.0005218969, 0.02551186, -0.007785684, 0.001073364, 0.02309958, 0.03848155, 0.0074464, -0.006107506, 0.006440193, 0.01414052, 0.006028339, -0.003769691, 0.01759006, 0.01100666, 0.02806591, 0.04078938, 0.01918148, 0.02092291, 0.038007, 0.000866531, -0.01773944, -0.003979196, 0.01921494, 0.01347772, 0.0239539, -0.0001884626, -0.002422044, -0.0211479, 0.01530085, -0.0049479, 0.0159993, 0.01219004, 0.01159584, 0.02789116, -0.003716661, -0.0118359, 0.01244533, 0.04720375, 0.02679238, 0.009645559, 0.05614709, 0.01755471, 0.05290578, -0.010444, -0.0007499412, 0.04485537, 0.01059554, -0.007709945, -0.02690686, 0.02735452, -0.01962135, 0.02644069, -0.03506936, -0.03222274, 0.01101056, 0.05130513, 0.02031605, 0.02187187, 0.07186858, 0.0569809, 0.09700368, 0.01282347, 0.04146937, 0.05078414, 0.02720351, -0.01980184, -0.002573277, 0.02841328, 0.005551843, 0.06452385, -0.005284165, -0.001085589, 0.02018455, 0.05209167, -0.001396065, -0.001410142, 0.04627291, 0.02397777, 0.05341362, -0.01285798, -0.01607507, 0.05327892, 0.01103631, -0.01357671, -0.01238016, 0.0515174, 0.03373499, 0.06020044, -0.01946213, -0.04390659, 0.01909286, 0.05923338, -0.008345185, 0.02045864, 0.05537323, 0.03133059, 0.064169, 0.004295601, 0.0002311615, 0.04281259, 0.0152068, 0.003682899, 0.001085459, 0.0487081, 0.01565259, 0.04426558, -0.02360426, -0.03391979, 0.001011802, 0.03280612, 0.01604697, 0.01344021, 0.0586469, 0.05455699, 0.05803193, 0.02054882, -0.01002309, 0.03303972, 0.03003908, 0.005663966, 0.00132552, 0.03435464, 0.02938676, 0.01855796, 0.006423823, -0.03157881, 0.03176785, 0.03267523, 0.0228583, 0.01208627, 0.04986688, 0.027653, 0.05852246, 0.02314416, 0.01282452, 0.04184494, 0.03075443, -0.01902704, -0.007587414, 0.01156783, 0.02392754, 0.02451903, -0.02142669, -0.02569203, 0.02359771, 0.06221518, -0.00680116, 0.002749935, 0.002288068, 0.02048606, 0.0221629, -0.007386315, -0.01387508, 0.05202065, 0.04958651, 0.02484662, 0.02948273, 0.02746383, 0.04315989, 0.04587685, 0.009339748, 0.02470324, 0.04959286, 0.04265337, -0.02660121, -0.01209834, 0.006653569, 0.01643998, 0.01775442, -0.0250107, -0.0104816, 0.02899194, 0.03543486, 0.01341136, 0.01573809, 0.03576568, 0.01928848, 0.0411238, 0.02094944, 0.02241321, 0.01948654, 0.02444207, 0.06696998, 0.07496521, 0.07226653, 0.04298536, 0.03879795, 0.02911868, 0.02010575, 0.000462958, 0.0160119, 0.06074205, 0.06688762, 0.03573059, -0.003931792, 0.01237736, 0.02909828, 0.01628668, -0.01493015, 0.01807903, 0.04222236, 0.03139757, 0.0383347, 0.0235912, 0.03703024, 0.04532255, 0.02577927, 0.002201319, -0.008023264, 0.03458739, 0.02043074, 0.03750272, -0.004952511, 0.01533872, 0.06039644, 0.04463936, -0.009822641, 0.04438934, 0.06332698, 0.07618182, 0.02286619, -0.01629831, 0.01298697, 0.03722365, 0.05252833, 0.007965564, 0.004143448, 0.04800434, 0.02704524, -0.02506986, -0.04459502, -0.0189219, 0.0151336, 0.05596463, 0.01572553, 0.03604613, 0.05487031, 0.05550523, 0.03431719, -0.02536721, 0.0282551, 0.07948148, 0.09762911, 0.04399324, 0.01629903, 0.03072737, 0.01480499, -0.01773249, -0.0405656, -0.01336478, 0.03032342, 0.05589845, 0.006572987, 0.05389856, 0.08026946, 0.03421608, -0.01435567, -0.01690685, 0.004745066, 0.03366245, 0.07794872, 0.06402714, 0.0278821, 0.05875764, -0.004356037, -0.04669438, -0.05203624, -0.05111341, -0.01256664, 0.03360942, 0.03619698, 0.04674006, 0.04771885, 0.03855015, -0.0003883896, -0.01955019, -0.001879527, 0.03687653, 0.07254978, 0.03251497, 0.01818424, 0.03899628, 0.008599117, -0.03953494, -0.04692017, -0.04538461, -0.001117976, 0.05381716, 0.01239908, 0.06126402, 0.04134796, -0.01457831, -0.02461261, -0.02885144, -0.04441614, -0.01826504, 0.02090636, 0.07027481, 0.03769746, 0.003853704, -0.03683468, -0.03233534, -0.01871599, -0.03792988, 0.00691777, 0.01013891, 0.02219813, 0.05812268, 0.04497226, -0.005032302, -0.0449548, -0.04125311, -0.0437534, 0.0141986, 0.07014322, 0.06241963, 0.03936366, 0.02053118, -0.02130821, -0.04979765, -0.03583348, -0.04973877, 0.01507617, 0.04857146, 0.03799892, 0.05875703, -0.01245427, -0.04231229, -0.0441089, -0.01688753, -0.04247879, 0.01089982, 0.01175552, 0.06729141, 0.06254354, -0.03091754, -0.07474949, -0.0969632, -0.04333487, -0.05930065, -0.04615136, -0.01369905, 0.06279664, 0.06838365, 0.01526656, -0.03312802, -0.04532459, -0.01275639, -0.03668449, 0.002146406, 0.0354721, 0.07698666, 0.06042577, 0.008000514, -0.04837436, -0.08223263, -0.02073165, -0.05997505, -0.05415516, -0.005755595, 0.06762338, 0.0866304, -0.03368678, -0.06314806, -0.089841, -0.06395931, -0.03955758, -0.06682929, -0.04399345, 0.07843133, 0.07404923, -0.0184691, -0.0602642, -0.1075494, -0.08907212, -0.06804672, -0.05965022, -0.04101049, 0.07821111, 0.1066191, -0.01414305, -0.03796392, -0.07100628, -0.04128491, -0.04785309, -0.06082076, -0.0458121, 0.08477329, 0.08986566, 0.004503376, -0.03108763, -0.09206696, -0.07463071, -0.06147043, -0.04802159, -0.02149011, 0.06918802, 0.0534425, -0.004772277, -0.05090901, -0.05521376, -0.05297986, -0.05800579, -0.05282379, -0.02654246, 0.06691968, 0.04967663, -0.0124076, -0.01812231, -0.04426905, -0.02880914, -0.03217263, -0.04422582, -0.03054705, 0.04542316, 0.06043851, -0.0004320854, -0.03287708, -0.06275461, -0.07079355, -0.06477127, -0.04983588, -0.01618437, 0.06316677, 0.03926673, -0.003695497, -0.02871993, -0.05566072, -0.06108786, -0.07837956, -0.05917229, -0.009834851, 0.05007386, 0.0383556, 0.006616481, -0.01032156, -0.05727679, -0.01852284, -0.008819315, -0.01985975, -0.008115073, 0.03354429, 0.004006558, -0.005158998, -0.02770627, -0.06074689, -0.05215119, -0.01815633, -0.01374063, -0.0008342473, 0.008650973, 0.03955152, -0.01825918, -0.01885189, -0.05056417, -0.003512595, -0.02567922, -0.02852087, -0.01296812, 0.04931223, 0.009289845, -0.01313848, -0.005370018, -0.05670529, -0.01095989, -0.0364172, -0.01711123, -0.007735223, 0.0351283, -0.006861153, 0.002904467, 0.02068106, -0.02117564, -0.01239166, -0.02036567, 0.005087219, 0.004603604, -0.01394274, -0.01804226, -0.02189639, 0.0006712758, -0.01638231, -0.01040033, -0.03361671, -0.01884024, -0.02993041, -0.02573955, 0.02933949, 0.02645008, 0.03457031, 0.002181333, 0.003145297, -0.02040832, -0.005683534, 0.008450387, 0.03685727, 0.006453018, 0.02152836, 0.02451067, 0.001393123, -0.02101103, -0.03260204, -0.01830403, 0.01168416, 0.0130912, -0.008860858, -0.01300581, 0.005560098, 0.008074894, 0.02673272, 0.007264778, -0.003762382, -0.02319671, -0.01816385, -0.002335898, 0.0004046288, 0.004889006, 0.01074136, 0.01817836, 0.02361695, -0.01553252, -0.03571618, -0.02761216, -3.455217E-05, 0.03461035, 0.03651299, 0.02620186, 0.02279798, 0.001139998, -0.01719665, 0.003677372, 0.003390771, 0.01758669, 0.0196372, 0.03630327, 0.01905122, 0.04105564, 0.009484073, -0.007401573, -0.01889348, 0.00474513, -0.005475103, 0.00500151, -0.01368582, -0.003993935, 0.008112575, 0.01864561, -0.009298826, -0.01152835, -0.02779289, 0.01213181, 0.02778462, -0.001785761, 0.001284724, 0.006778151, 0.04717611, 0.03578644, 0.01102878, -0.007235542, 0.01489963, 0.03448863, 0.02629245, 0.01794521, 0.03067393, 0.0007476236, -0.005261412, -0.01171458, -0.003897368, 0.01789572, 0.05012932, 0.02369634, 0.01861116, 0.02767058, 0.0584466, 0.03382044, 0.02108724, 0.002244807, 0.07822455, 0.02541641, 0.03621134, 0.06825272, 0.05178907, 0.07992092, 0.003292986, 0.005504902, 0.06466037, 0.0634139, -0.004154784, -0.01993839, 0.02259146, 0.008146326, 0.05610705, -0.00617271, -0.02530481, 0.03224599, 0.04885285, -0.01707252, 0.009749858, 0.06961459, 0.0306729, 0.04674088, -0.01390444, -0.02992968, 0.02915362, 0.009566169, -0.02299838, -0.03819966, 0.02807886, 0.006894046, 0.04860254, -0.02480716, -0.0604318, -0.008801975, 0.06560035, -0.002726925, 0.007499396, 0.04378491, 0.03024785, 0.04842698, 0.007152743, -0.007097474, 0.06054469, 0.005499531, -0.01366891, -0.002152367, 0.04583514, 0.01827858, 0.02279049, -0.03292548, -0.04876072, -0.006371151, 0.04674328, -0.03618139, -0.02312499, 0.03561145, 0.02270138, 0.0761764, 0.026126, -0.0006028563, 0.04833019, 0.01029423, -0.06930147, -0.056164, 0.05436452, 0.00878819, 0.0790305, 0.00877097, -0.006128107, 0.01406258, 0.04941665, -0.003446705, -0.003014215, 0.04217215, 0.02988036, 0.04610018, -0.008235238, -0.0188683, 0.04419562, 0.04202657, -0.01073386, -0.002247444, -0.003340324, 0.01836559, 0.0159292, -0.03008974, -0.0340385, 0.0282773, 0.06294655, -0.03029468, -0.02609465, 0.05393669, 0.06120151, 0.0813086, 0.01764234, 0.01766329, 0.06832068, 0.04161178, -0.004950361, -0.01502725, 0.008632213, 0.03035251, 0.02025368, -0.02403658, -0.02144122, 0.04203631, 0.03967788, -0.01005514, 0.004235322, 0.007229166, 0.03358078, 0.03154588, -0.01323633, -0.008044131, 0.01749706, 0.02826048, 0.02684006, 0.01751578, 0.0363501, 0.03056701, 0.05000975, 0.01276207, 0.0002367508, 0.01788292, 0.0425655, -0.002725303, 0.0101614, 0.01414495, 0.03894304, 0.02993601, 0.004869344, 0.00741613, 0.04281208, 0.007281999, -0.009358037, 0.0003614992, 0.01812812, 0.005591186, 0.03187082, 0.02941369, 0.001871989, 0.02218739, 0.01929761, 0.01673732, 0.02045567, 0.04033994, 0.03486878, 0.05019313, 0.03782183, 0.008941002, 0.02178517, 0.01010394, 0.03180466, 0.01549192, 0.03986627, 0.01165979, 0.03485252, 0.04998918, 0.06356481, 0.02230132, 0.002528214, -0.013538, -0.01687821, 0.005445451, 0.005743411, 0.02287373, 0.03884806, 0.02342725, -0.01044064, 0.009148894, 0.00318857, -0.0260064, -0.01770244, -0.0323072, 0.02396958, 0.06544394, 0.06851726, 0.002890893, 0.03219397, 0.03260856, 8.905707E-05, 0.00663702, -0.01313606, 0.01483318, 0.05625867, 0.07495499, 0.0313954, 0.0216058, 0.04184082, 0.007941948, -0.02056965, -0.03592399, -0.003985178, 0.01892041, 0.05251099, 0.03065893, 0.02961052, 0.01327946, -0.0399093, -0.02398409, -0.009511745, 0.02415929, 0.05674887, 0.06383824, 0.00816062, 0.008460874, -0.0009393613, -0.03481736, -0.03757013, -0.02057409, 0.02649008, 0.02743015, 0.04401924, 0.01445233, 0.0469773, 0.04004215, 0.02453136, -0.00678924, -0.01838914, 0.005539765, 0.03246733, 0.06317216, 0.06131035, 0.01884652, 0.005880336, -0.01246295, -0.05330464, -0.04958363, -0.03315458, 0.007168513, 0.02683064, 0.02410434, 0.03032059, 0.01703072, -0.004749533, -0.01980796, 0.01108212, 0.03441261, 0.03613145, 0.07042538, 0.06025753, 0.003154027, -0.03578845, -0.05830281, -0.07207228, -0.04290986, -0.02352348, -0.003119421, 0.02436827, 0.002406358, 0.07568331, 0.0272688, -0.01634738, -0.05462168, -0.03530543, -0.03468353, 0.005160735, 0.03494471, 0.08192126, 0.06068326, 0.008254013, -0.02799369, -0.06649667, -0.03460329, -0.06441005, -0.02892299, 0.01274059, 0.06263162, 0.05678304, -0.01757809, -0.04556288, -0.04672037, -0.02185219, -0.01574001, 0.005445012, 0.02020404, 0.05633768, 0.03190728, -0.02205272, -0.04457889, -0.05801323, -0.01985341, -0.05928978, -0.02326883, -0.01870372, 0.03880366, 0.08113685, 0.02064266, -0.007223411, -0.03864606, -0.02910207, -0.03019162, -0.04213464, 0.01023765, 0.08740668, 0.07073832, 0.01132443, -0.0386143, -0.06065344, -0.0353747, -0.03953711, -0.06175505, -0.0132454, 0.0649152, 0.04449099, -0.001331515, -0.008649158, -0.03021321, -0.009599438, -0.04191402, -0.03409478, -0.01390721, 0.05578762, 0.01816457, -0.002427387, -0.03887898, -0.05422943, -0.02898244, -0.05477267, -0.06034232, -0.02341076, 0.02108208, 0.1005899, 0.008209676, -0.02149396, -0.03930268, -0.0284475, -0.04045585, -0.05407777, -0.03462723, 0.08521643, 0.08313014, 0.01484019, -0.02675312, -0.0483234, -0.04130327, -0.01535854, -0.03181339, -0.02037783, 0.06383009, 0.05107016, -0.00889306, -0.03898952, -0.05692783, -0.02931799, -0.05795222, -0.05759239, -0.02459289, 0.04375043, 0.03893549, -0.03735365, -0.04294085, -0.0638309, -0.0484345, -0.04252762, -0.05096479, -0.05024199, 0.03354154, 0.08521582, -0.0002162365, -0.03413667, -0.04495717, -0.03917739, -0.02053608, -0.03145519, -0.002150784, 0.07064215, 0.06841325, -8.782522E-05, -0.0176129, -0.03590935, -0.0328784, -0.0481411, -0.02356564, 0.02252625, 0.07954061, 0.0178882, -0.0431142, -0.04197252, -0.0673209, -0.03913377, -0.03320244, -0.04096279, -0.03464897, 0.01994837, 0.01289261, -0.01768705, -0.03336888, -0.06649406, -0.04749275, -0.07028172, -0.05275491, -0.01267826, 0.01879253, 0.05833586, 0.002470356, 0.004747225, -0.01854688, 0.002008703, -0.02398268, -0.001275176, 0.01193992, 0.05598292, 0.03022742, 0.01025659, 0.01200936, -0.02532736, -0.003626858, -0.01025464, 0.01350068, 0.01650001, 0.03450872, 0.000238098, 0.004871128, -0.009283946, -0.02945508, -0.02557446, -0.04260404, -0.02654794, -0.01460535, 0.005754331, 0.0008066481, 0.00851855, 0.001639703, -0.02626957, -0.01493483, -0.01743766, -0.01154645, -0.01678473, -0.002460565, 0.04577542, 0.03573396, 0.02275885, -0.01724522, 0.001452779, 0.005119735, -0.0009504701, 0.002344257, 0.03654327, 0.01337678, 0.0288205, 0.006087218, -0.02720657, -0.0246843, 0.003127311, -0.01470928, 0.0125952, 0.01882713, 0.02037311, 0.02835599, 0.01102617, -0.02172701, -0.006542204, 0.006348112, -0.00451201, -0.02533995, -0.003063151, 0.004220369, 0.003053753, 0.002356471, -0.02513421, -0.03678116, -0.001604316, -0.02630283, -0.03949607, 0.01777024, 0.02727335, 0.01688614, 0.02254267, 0.006499626, 0.011541, 0.003994961, -0.01937631, 0.005840464, 0.01812007, 0.03437236, 0.0106429, 0.02278407, 0.007459765, -0.0002197917, -0.01364672, -0.00939283, -0.02090516, -0.0005223971, 0.02141996, 0.002347318, 0.02280911, 0.003175528, 0.008369134, 0.01693863, -0.03236676, -0.0359127, 0.02752791, 0.03109838, 0.005181946, 0.01020357, 0.003082364, -0.0002271908, 0.01346933, -0.001113586, -0.03542817, 0.02645354, 0.04181038, 0.01699672, -0.002471924, -3.672591E-05, 0.0165468, -0.00236096, 0.003277024, -0.0118535, -0.012221, 0.03369866, 0.01403144, 0.00308844, 0.00708751, 0.03325162, 0.03364183, 0.007599713, -0.01440027, -0.00454704, 0.01829502, 0.005577197, -0.02168251, 0.006133682, 0.02641626, 0.004823541, 0.005285454, -0.001907688, 0.01076107, 0.03889887, 0.03016729, 0.002442823, 0.02201099, 0.04010422, 0.01739069, -0.02818097, -0.02025939, 0.007686973, 0.07579748, -0.02289232, 0.01185519, 0.04791102, 0.01040183, 0.04222259, 0.00430882, -0.01110934, 0.06599188, 0.03108937, -0.02990327, -0.03315724, 0.01135457, 0.01984836, 0.05701017, -0.006367302, -0.02852094, 0.02880743, 0.04487296, -0.01339812, 0.01150403, 0.05708805, 0.01994609, 0.07223756, 0.006609737, -0.01666861, 0.02924854, 0.02393468, -0.02499975, -0.03549104, 0.01477383, 0.0454739, 0.04525249, -0.00392987, -0.02457993, 0.01951669, 0.04308654, -0.05570274, -0.04555491, 0.01543816, 0.02319789, 0.06568106, 0.02521765, 0.01363442, 0.0496988, 0.01578862, -0.06023871, -0.04550498, 0.0453609, 0.0312895, 0.09135702, 0.03544646, 0.01934342, 0.02806696, 0.03125524, -0.02550606, -0.02581446, 0.02375042, 0.03490673, 0.04990933, 0.01410339, 0.0005629632, 0.01724338, 0.009229464, -0.01768265, -0.02569134, 0.06155654, 0.00587933, 0.05698042, 0.02017703, -0.008359636, 0.004340384, 0.02866435, -0.04274493, -0.00891098, 0.0346779, 0.02724798, 0.06012854, 0.01062962, 0.01772839, 0.05025145, 0.04660877, -0.01837175, 0.005506315, 0.005997879, 0.01401633, 0.02354264, -0.018284, -0.01554755, 0.06945073, 0.0400946, -0.01948255, 0.002976342, 0.04591149, 0.004631285, 0.04856765, 0.01668263, 0.0006435978, 0.05694274, 0.05411703, -0.03458492, -0.02737846, 0.009286538, -0.0259154, 0.03037012, -0.01160881, -0.01717837, 0.06205178, 0.05215027, -0.02301328, -0.005728367, 0.006709877, 0.009484179, 0.03246041, 0.004577063, -0.003573774, 0.07678616, 0.02180142, -0.02263556, -0.01444889, 0.03376705, 0.005083316, 0.02447028, 0.0008873866, -0.0136743, 0.01196599, 0.06493279, -0.04802929, -0.0610175, 0.007433638, -0.009705666, 0.01942808, -0.00153494, 0.009613618, 0.08026948, 0.02589834, -0.03352674, -0.04282905, 0.04953908, 0.03434858, 0.04728792, -0.007741715, -0.01890568, 0.03395563, 0.03972994, -0.01463237, -0.02669848, 0.003480184, 0.01116189, 0.02018048, 0.01048764, 0.001683597, 0.01623291, 0.0250849, -0.02009942, -0.02751261, -0.01680279, -0.01590359, 0.02522451, 0.01131706, 0.007497853, -0.004908255, 0.03910563, -0.01123464, -0.01533105, 0.03885504, 0.05038416, 0.04329544, 0.004098302, 0.002352096, 0.03184643, 0.01481025, 0.003206354, 0.007413659, 0.01604679, 0.0139841, 0.05182515, 0.01686085, 0.008880249, -0.00749913, 0.02024634, -0.02071827, -0.03853304, -0.004120697, 0.00193296, 0.04584905, 0.02714998, 0.02545826, 0.004728564, 0.0009328406, -0.03116973, -0.02869799, -0.02264352, -0.02547319, 0.04271564, 0.01563171, 0.03135747, 0.009912279, 0.007447318, -0.01008147, 0.0002968237, 0.01555798, 0.02180666, 0.07654015, 0.03032802, 0.01478376, -0.01073601, -0.006335543, -0.01867807, -0.009996422, -0.006776951, -0.003794054, 0.04317803, 0.02371251, 0.009765425, -0.01331594, 0.03976131, -0.02137284, -0.02150412, -0.009722005, -0.006153878, 0.04728424, 0.02457721, 0.03923028, 0.03187279, 0.01747446, -0.0435824, -0.04923737, -0.04337472, -0.05068155, 0.00770558, 0.001566759, 0.02556721, 0.0117219, 0.00124779, 0.00848723, 0.002372839, 0.02699189, 0.01443995, 0.04601234, 0.02379146, 0.0150871, 0.01126454, 0.006755014, -0.01050312, -0.008679352, 0.008746331, -0.001284262, 0.01852432, 0.004232504, 0.01615511, 0.007735934, 0.03651929, -0.03302773, -0.043799, -0.01565735, -0.02265254, 0.0129157, 0.007956583, 0.007801857, 0.02848231, -0.01637519, -0.03861668, -0.04561123, -0.02470196, -0.02859743, -0.02140224, -0.02495783, -0.01885501, -0.009945428, 0.03868548, 0.005863343, 0.01219532, 0.03354994, 0.04508538, 0.05109694, 0.01422542, 0.01825919, 0.02449357, -0.01808583, -0.0303435, -0.005833804, 0.01570251, 0.006884945, 0.03618214, -0.02469015, -0.03732688, -0.02820598, 0.014622, -0.002614451, 0.0009783835, 0.004453225, 0.01135571, 0.004422834, -0.003738823, -0.002452778, 0.03500318, -0.01290043, -0.0149985, -0.03817767, -0.04017741, -0.01194815, -0.01659145, -0.001947678, -0.04064154, 0.004952468, -0.01338008, -0.00392555, 0.02455511, 0.03438948, 0.02971167, 0.04842684, 0.02059826, -0.01510156, -0.007650705, -0.02459472, 0.002242434, -0.0005038473, -0.02593508, -0.01548302, 0.001506216, 0.0111131, -0.03847317, -0.03737768, 0.025847, 0.002155447, -0.01673228, -0.02916486, 0.001754774, -0.00532377, 0.008982774, -0.002584703, 0.02989565, 0.003496086, -0.02243937, -0.01054503, -0.0284229, -0.0243288, -0.01079651, 0.0007512976, 0.01015821, 0.02965677, -0.01001934, -0.01006987, -0.006157858, -0.01727577, 0.004670625, 0.02156851, 0.02479055, 8.70676E-05, -0.02126781, -0.0339273, -0.02995022, -0.01491679, -0.006913093, 0.009843968, 0.02323484, 0.02303049, 0.02011227, -0.002983891, -0.008321263, -0.008377478, -0.01127175, -0.01782066, -0.003841146, 0.009908218, 0.01932098, 0.02453861, -0.001124826, -0.002434239, -0.003353739, -0.01911612, -0.01277163, -0.005710174, 0.01072671, 0.0009954883, 0.007572473, -0.02877522, -0.03637024, -0.01837671, -0.01473572, 0.01285444, 0.02054834, 0.03601998, 0.009107076, 0.0258569, -0.0233233, -0.0231641, -0.02527495, -0.02077167, -0.004407747, 0.009715709, 0.04475423, -0.006240851, -0.006825021, -0.05432585, -0.003097667, 0.007496378, 0.01178429, -0.006309398, -0.0001259946, -0.001967411, -0.009631813, -0.01521504, -0.03055571, -0.009250511, 0.0414821, 0.04648398, -0.00263299, 0.0118864, 0.0260918, 0.01964192, -0.007560755, -0.01195504, -0.03026615, -0.005048966, -0.0002697279, -0.01382188, 0.007205747, 0.03621293, -0.0004810517, -0.03148844, -0.06834605, -0.03262721, 0.0481344, 0.05329559, 0.01173469, 0.002238228, 0.02872924, 0.02426617, -0.007724311, -0.04373296, -0.001712309, 0.05533962, 0.02693288, 0.01621972, 0.01371337, 0.02281448, 0.01625812, -0.01970407, -0.01984659, 0.001746186, 0.02654369, 0.02082646, 0.01561341, -0.002638814, 0.008164664, -0.006683787, -0.01955716, -0.005114744, -0.02439279, 0.03304132, 0.02731285, 0.01889511, -0.006357894, 0.0112752, -0.001158337, -0.02791604, -0.04342422, -0.0149689, 0.03733254, 0.01715359, 0.007872232, -0.009573545, 0.00549323, -0.007070343, -0.01493788, -0.01246334, 0.01211332, -0.008041084, 0.02306347, 0.0008337555, 0.008747995, 0.02259302, -0.04373958, -0.0493976, 0.003986396, 0.01393959, 0.0006772041, 0.02062997, -0.01188069, -0.009743094, 0.03133927, -0.02020722, -0.03310519, 0.03161662, -0.006731312, 0.009596416, 0.007492858, -0.008970436, -0.01210396, 0.01525543, -0.01627486, -0.009417564, 0.01108775, 0.03793482, 0.02279417, 0.02503092, -0.002123709, -0.005566864, 0.04215768, -0.003763499, -0.01602252, 0.03516457, -0.004138349, 0.0137392, -0.009320389, -0.009821669, -0.01890466, 0.008306337, -0.01734881, -0.03172705, 0.008450001, 0.01888872, 0.04083421, 0.004446508, 0.01148401, 0.01154861, 0.01715972, -0.03832355, -0.02524394, 0.01140102, 0.03673327, 0.03253029, 0.01798459, 0.01191313, -0.02301965, 0.01239395, -0.0220389, -0.01667762, 0.02033505, 0.06282868, 0.04992602, 0.01008258, 0.02539663, 0.0005738582, -0.001621659, -0.04427329, -0.002636613, 0.02963031, 0.04344693, 0.004803221, 0.01667586, 0.06125623, 0.01247463, 0.03680424, -0.01249775, -0.02976341, 0.03791539, 0.05187293, -0.006424183, 0.005684015, 0.04848082, 0.03176094, 0.03291457, -0.03060173, -0.03873609, 0.05294061, 0.03263866, 0.01548964, 0.02457126, 0.07607163, 0.01086375, 0.03405877, -0.03894596, -0.0593995, 0.00557569, 0.02960981, 0.004014921, 0.009154902, 0.06794303, 0.01670923, 0.0600464, -0.03034859, -0.02697545, 0.02225565, 0.0312064, 0.0008638398, 0.01885423, 0.04338075, 0.008613644, 0.0146076, -0.01818148, -0.02325907, 0.01679956, 0.01759484, -0.007465754, 0.009155136, 0.05750105, -0.01439643, 0.01418393, -0.02303663, -0.02273887, 0.0118842, 0.03303755, 0.008067825, 0.02654733, 0.06037907, 0.02505511, 0.04476866, -0.01395879, -0.003993949, 0.0287326, 0.02460538, 0.006989938, 0.03442481, 0.07304278, 0.009976795, 0.02952867, -4.316465E-05, 0.0103537, 0.01625941, 0.07117993, -0.002658747, -0.01349713, 0.04488315, -0.01161026, 0.02479584, -0.007335226, -0.01808423, 0.07144787, 0.06597552, -0.01598723, -0.05003513, 0.002173932, -0.04193967, -0.0006452468, -0.03831203, -0.03912407, 0.07502083, 0.05357762, 0.0004989487, -0.003601609, 0.053253, 0.01568922, 0.0387541, 0.005416735, 0.007776264, 0.06452486, 0.04729202, 0.01652098, -0.02172102, 0.03459854, -0.01392593, 0.02069168, -0.01850786, -0.002659484, 0.05779872, 0.07803845, -0.04621289, -0.07192666, -0.0151955, -0.03022447, -0.001148926, -0.03262952, -0.02521601, 0.08348274, 0.04164746, -0.03822863, -0.04241468, 0.032244, 0.004775047, 0.02146131, -0.03040394, -0.0183917, 0.04847213, 0.06069959, 0.01104622, -0.0297045, 0.01381019, -0.01131257, 0.01959659, -0.006881652, 0.006200051, 0.08247148, 0.04402713, 0.02637706, 0.005699213, 0.05114877, 0.005202139, 0.05109525, 4.577281E-05, 0.01327349, 0.0434242, 0.0100895, -0.03412, -0.03384816, 0.02191433, 0.03241972, 0.02599589, -0.03342471, -0.01757437, 0.0284469, 0.01166148, -0.01367269, -0.01644995, 0.01507851, -0.01702933, 0.02809422, -0.01884389, -0.01197626, 0.01653686, 0.02732311, 0.01563003, 0.03008019, 0.0566085, 0.03487248, 0.06525533, 0.01472109, 0.009499884, 0.02459749, 0.02313063, 0.01826067, 0.0360509, 0.03429466, 0.004599361, 0.06042984, 0.03331969, 0.0324436, 0.02614367, 0.007999908, -0.02109885, -0.01407589, -0.007326211, 0.005604438, 0.04509389, 0.006877248, -0.01367193, -0.002344566, -0.0117486, -0.02231586, -0.01600636, -0.0007226334, -0.01361081, 0.004243665, -0.01235256, -0.03797808, -0.02026403, 0.04232293, 0.003680252, 0.006390845, 0.02287166, 0.01538974, 0.06226388, 0.02651141, 0.02707711, 0.04002596, 0.01966668, 0.02664517, 0.02555982, 0.02847534, 0.01168811, 0.02069662, 0.005680098, 0.005857049, 0.007915718, -0.003126065, -0.003356983, 0.002410281, 0.03587557, -0.0113309, 0.008982691, -0.02058121, -0.01698857, 0.00623041, -0.01023606, -0.005209538, 0.004897892, 0.01664197, -0.02033025, 0.01438607, -0.03394623, -0.01761479, -0.006629153, 0.0385161, 0.0418203, 0.05675315, 0.05036706, 0.003537365, 0.03501001, 0.0189683, 0.01242379, 0.03993295, -0.001717367, -0.004660185, 0.01244381, 0.02643819, -0.0004585313, 0.03215124, -0.006022371, -0.002151869, 0.0118678, 0.01587922, -0.002968658, 0.0003625592, 0.0191343, 0.04505619, 0.0500747, -0.01063095, -0.004058897, -0.001560485, -0.03986004, -0.024412, -0.02666823, -0.0130662, -0.01261706, 0.01589395, -0.0321606, -0.04523335, -0.06774535, 0.01208125, 0.003823311, 0.006343844, 0.03846266, 0.05133076, 0.05033861, 0.01461898, 0.02309107, 0.0307054, -0.03234742, -0.02018005, -0.01922283, -0.02008428, -0.01139251, 0.003288893, 0.008199908, 0.004548539, -0.0269886, -0.01110336, 0.01878471, 0.01955006, 0.03152921, 0.01745785, 0.0402179, 0.0001882631, -0.0189674, -0.04172656, -0.04625938, -0.0008169353, 0.001994687, -0.01515715, -0.01061782, 0.0003168592, -0.00451482, -0.04316827, -0.0794318, -0.01749388, 0.001117991, 0.01072691, 0.01451667, 0.01977743, 0.04896012, 0.03112178, 0.01834516, -0.01878267, -0.04623672, 0.01004836, -0.003924695, -0.01627858, -0.005300813, 0.03323389, 0.02452763, 0.00138824, -0.05478142, -0.02295011, 0.002436989, 0.01243808, 0.01044472, 0.02715084, 0.01751481, 0.0126327, -0.008442215, -0.03783363, -0.05056845, -0.02163735, -0.01140032, 0.001784235, 0.01112195, 0.01291667, 0.01025209, -0.01470223, -0.04352504, -0.02451197, 0.02618272, 0.02229733, 0.01266703, 0.04602592, 0.06003456, 0.04408249, 0.03030157, -0.03139878, -0.04147245, 0.001193317, 0.001952781, 0.007290538, 0.02507286, 0.02761264, 0.04386917, -0.01642114, -0.03986211, -0.0384429, -0.0149501, -0.003544223, 0.02600144, 0.03440181, 0.03852498, 0.008805607, -0.007854316, -0.02515054, -0.04108173, -0.02586272, -0.009942822, 0.007766112, 0.01965865, 0.0282147, -0.0069121, -0.03676034, -0.04642978, -0.01675854, 0.004582719, 0.00533999, 0.01678941, 0.05389891, 0.04317865, 0.03714757, -0.02707896, -0.03128179, -0.03405816, 0.007877217, 0.02216087, 0.02763483, 0.04420486, 0.03744586, -0.01047676, -0.0625242, -0.04937905, -0.03095743, -0.01204137, -0.009121253, -0.004590088, 0.01296341, 0.03144049, -0.01445664, -0.05255593, -0.05996333, -0.02573731, 0.01865359, 0.01933233, 0.003662412, 0.01687979, 0.04328034, 0.02924728, -0.01446473, -0.05158151, -0.0371787, -0.004922588, 0.003418627, 0.011695, 0.0351195, 0.04122221, 0.0006808602, -0.03312277, -0.04940876, -0.001251585, 0.02539, 0.01010807, 0.0009501572, 0.03148702, 0.05408733, 0.04502864, 0.03597803, -0.02406673, -0.02474662, 0.01495294, 0.01384231, 0.01630617, 0.01014936, 0.02160816, 0.01826595, -0.02574027, -0.06046196, -0.04048558, 0.03281547, 0.04215509, 0.01342627, 0.02013326, 0.01342133, 0.002699825, -0.006579123, -0.03114334, -0.01319286, 0.02637357, 0.01807011, 0.003668785, 0.008061917, 0.03765648, 0.04706746, 0.01387059, -0.04502288, -0.02072546, 0.05341088, 0.05027619, 0.0187341, 0.005291354, 0.0407544, 0.02314437, 0.02606344, -0.04012412, -0.015739, 0.007566734, 0.01236353, -0.0168724, -0.01843746, -0.01096281, -0.02857433, -0.01319513, -0.006363236, 0.02341306, 0.02314284, 0.006798856, -0.002125622, -0.01217256, 0.02960701, -0.01647151, -0.01835017, 0.006018465, -0.02596085, 0.0331845, 0.04225577, 0.02566503, 0.0005050368, 0.008101407, -0.02388783, -0.008145122, -0.0308429, 0.02317267, 0.05171242, 0.03124589, 0.03585076, 0.01235844, 0.0254372, -0.01366746, -0.01536408, 0.008484453, 0.02593541, 0.02456095, 0.005306271, 0.009915356, -0.02599418, -0.006734026, -0.02960309, -0.0285178, 0.00701642, 0.06026385, 0.04055152, 0.01960848, 0.01929926, -0.001042839, -0.01713322, -0.06480354, -0.03906688, 0.03214262, 0.03689178, 0.04155347, 0.01214729, 0.0266606, 0.01868401, 0.02136593, -0.01525771, -0.01471373, 0.02017829, 0.03106633, 0.04809176, 0.02186271, 0.01695625, -0.009398416, -0.02897879, -0.02878546, -0.02678519, 0.01841279, -4.4281691]
