%YAML:1.0
detektor1: !!opencv-object-detector-hog
   winSize: [ 64, 128 ]
   blockSize: [ 16, 16 ]
   blockStride: [ 8, 8 ]
   cellSize: [ 8, 8 ]
   nbins: 9
   derivAperture: 1
   winSigma: 4.
   histogramNormType: 0
   L2HysThreshold: 2.0000000000000001e-001
   gammaCorrection: 1
   nlevels: 64
   SVMDetector: [ 5.35938591e-002, -1.47214547e-001, -5.53217009e-002,
       5.07730693e-002, 1.15470812e-001, -4.26880382e-002,
       4.63583395e-002, -5.46819903e-002, 8.23208392e-002,
       1.04240678e-001, -2.29451805e-002, 1.10851899e-002,
       1.37869297e-002, 1.11935101e-001, 1.26841804e-002,
       8.52834582e-002, -6.30923882e-002, 1.30546331e-001,
       8.10072869e-002, -5.20973913e-002, -4.31552902e-002,
       9.34138373e-002, 1.10350259e-001, -7.59621784e-002,
       -5.51751107e-002, -4.46529612e-002, 2.94733401e-002,
       4.55553606e-002, -3.55954492e-003, 7.81895593e-002,
       7.73099065e-002, 7.89071470e-002, 6.22289293e-002,
       9.00138021e-002, -3.57438102e-002, 3.41432691e-002,
       5.67725785e-002, -4.77358103e-002, 3.74663696e-002,
       -3.52117494e-002, 6.95544034e-002, -3.84903811e-002,
       1.05229300e-002, 1.73611194e-002, 1.08677097e-001,
       8.74885321e-002, 3.29739624e-003, 1.09070279e-001,
       7.91375786e-002, 1.03930697e-001, 2.09186692e-002,
       1.15940221e-001, 1.31824195e-001, 9.87935364e-002,
       5.36270998e-002, -6.74539134e-002, -7.01260753e-003,
       5.24702156e-003, 3.23625505e-002, 1.40791601e-002,
       2.20798291e-002, 2.53732204e-002, 4.54794802e-002,
       7.20075592e-002, 3.12989391e-002, -6.27446771e-002,
       2.10701395e-002, 6.03520796e-002, 8.63623619e-002,
       4.53164103e-003, 2.19336301e-002, 2.30980106e-002,
       5.56816608e-002, -2.64509302e-002, 4.44869511e-002,
       2.83751898e-002, 8.97569433e-002, 4.46151607e-002,
       8.97535533e-002, 7.51439109e-002, 2.30698194e-002,
       1.04100838e-001, 6.36838526e-002, 5.94346412e-002,
       4.58420580e-003, 5.22033684e-002, 6.67585135e-002,
       8.35856870e-002, 6.71210065e-002, 6.55900389e-002,
       -3.93048190e-002, -9.15936660e-003, -5.89791499e-002,
       2.81645302e-002, 5.03234789e-002, 6.78067133e-002,
       3.37764993e-002, -6.09417039e-004, -1.79514606e-002,
       -3.08368392e-002, -1.30247502e-002, -2.97231302e-002,
       7.88706727e-003, -3.52596082e-002, -2.50397739e-003,
       5.24508394e-002, 1.17912933e-001, -2.16749795e-002,
       5.29933199e-002, 6.64052367e-002, 5.19026518e-002,
       -8.27316567e-003, 3.03312708e-002, 5.84217310e-002,
       -4.01050318e-003, -6.25105947e-003, 5.86295798e-002,
       -2.46546101e-002, 5.54678105e-002, -8.22819471e-002,
       -7.23402798e-002, 4.64054011e-002, -1.30825397e-002,
       -2.50619091e-002, 3.10074594e-002, -4.66565117e-002,
       -4.59148586e-002, 2.94992700e-002, 6.03546202e-002,
       2.24464592e-002, -1.69863906e-002, 1.04004098e-002,
       1.13116996e-002, 5.41957915e-002, -2.13027708e-002,
       -4.32172194e-002, -3.66519801e-002, 1.12648997e-002,
       -2.60648802e-002, -2.22832803e-002, -2.25568004e-002,
       -3.42723615e-002, -7.75165204e-003, -6.19522892e-002,
       8.21638294e-003, 9.53597501e-002, -3.70997898e-002,
       -6.94250092e-002, 1.45794272e-001, -5.44819199e-002,
       -2.05590408e-002, 5.74735701e-002, 2.78178807e-002,
       -7.07757697e-002, -5.17831407e-002, -1.04290113e-001,
       -1.12355053e-001, 7.52903894e-002, -7.55930170e-002,
       -8.78673866e-002, 2.98384298e-002, 2.66758502e-002,
       1.38219902e-002, -1.79749597e-002, -3.14119905e-002,
       -2.09810100e-002, 9.02920365e-002, 4.95501794e-002,
       1.37187392e-001, 1.13799527e-001, 1.80019124e-003,
       -4.57760990e-002, -1.11108483e-003, -9.47053581e-002,
       -1.15960799e-001, 4.48934212e-002, 1.78421102e-002,
       3.06850672e-003, 1.07818663e-001, 3.36498418e-003,
       -1.08425803e-001, -7.43683875e-002, -1.05350703e-001,
       -1.86680499e-002, 1.60578907e-001, -5.07316366e-003,
       -4.29565795e-002, -5.90488780e-003, 8.82003549e-003,
       -1.49264596e-002, -5.02927899e-002, -1.28758803e-001,
       8.78831954e-004, -1.29718399e-002, -7.59277418e-002,
       -2.66883094e-002, -6.93787413e-004, 2.40669809e-002,
       -1.77329797e-002, -3.85574512e-002, -5.87785617e-002,
       3.25969495e-002, 1.28265843e-001, 6.29258975e-002,
       -4.10733931e-003, 1.09965310e-001, 1.33299101e-002,
       2.08873507e-002, 4.03750390e-002, -5.21075986e-002,
       7.76004568e-002, 6.39934689e-002, -5.75193018e-002,
       -1.00530572e-001, 7.50502273e-002, -2.13978197e-002,
       1.79617591e-002, 2.34400877e-003, -4.20831889e-002,
       7.35505521e-002, 5.09334989e-002, -2.99677998e-002,
       -2.21907198e-002, 3.35532986e-002, 4.41874191e-002,
       -5.58070503e-002, -5.03757298e-002, -4.54817899e-002,
       1.37951402e-002, 2.15067100e-002, -2.19421107e-002,
       -1.36827022e-001, 5.46497218e-002, 1.60808191e-002,
       5.30911610e-002, 4.70102206e-002, 1.33690401e-003,
       7.57566392e-002, 9.62530598e-002, 8.92647635e-003,
       -2.81912293e-002, 1.08668298e-001, -3.43932509e-002,
       -7.09237084e-002, -6.00478016e-002, -2.71229800e-002,
       -7.07467366e-003, -1.63701996e-002, 1.33678997e-002,
       -1.03136063e-001, 4.90658209e-002, -5.73244505e-002,
       -2.73107905e-002, 1.04223499e-002, -8.34066793e-002,
       3.68650109e-002, 6.10833988e-002, 1.32274805e-002,
       -7.80952871e-002, 3.77472416e-002, -3.41324806e-002,
       -6.09652512e-002, -4.21212390e-002, -7.98217580e-002,
       -1.25973229e-003, -3.04550100e-002, -1.23649295e-002,
       -6.31239489e-002, 4.78956997e-002, -4.60206605e-002,
       8.57656971e-002, 2.52107996e-002, 2.98809800e-002,
       1.03145830e-001, 7.06003532e-002, 4.52054404e-002,
       -4.42665406e-002, 1.31465301e-001, 8.38648975e-002,
       2.16458999e-002, -2.12280243e-003, -3.68635282e-002,
       -2.07494404e-002, -3.82995903e-002, -1.53059596e-002,
       2.68970802e-002, 1.18674010e-001, -6.04346991e-002,
       -2.78502293e-002, -4.77507412e-002, 4.87874486e-002,
       6.35095611e-002, 3.49478796e-002, 1.46740004e-002,
       1.17890188e-003, 4.37961407e-002, 2.03681854e-003,
       -3.95860896e-002, -1.07268803e-002, 6.43705716e-003,
       2.99650002e-002, -3.41850705e-002, -1.96030699e-002,
       -1.21915396e-002, -4.37000440e-003, -2.54945308e-002,
       2.64631808e-002, -1.63251292e-002, 6.46516960e-003,
       -1.92973409e-002, 4.78711911e-003, 4.96237092e-002,
       3.80911082e-002, 7.26572424e-002, 5.75812496e-002,
       -3.74155417e-002, 1.64860804e-002, -8.45285598e-003,
       3.99682596e-002, -8.18547681e-002, 2.63887495e-002,
       -4.02661487e-002, -2.74467394e-002, -4.07151692e-002,
       1.05096330e-003, -4.74123210e-002, -6.73317164e-002,
       8.70434940e-003, -2.19254307e-002, 1.35350740e-003,
       -3.05697396e-002, -2.97552105e-002, -2.88778003e-002,
       -1.21071301e-002, -4.82852608e-002, -9.06625092e-002,
       -9.96962935e-002, -3.66516411e-002, -8.88111943e-004,
       -6.82666898e-002, -1.86615009e-002, -3.62764001e-002,
       -1.40828798e-002, 1.87423900e-002, -2.07583494e-002,
       9.14517492e-002, -3.54729109e-002, 5.39678000e-002,
       4.19898108e-002, 1.30192498e-002, -3.38435397e-002,
       -1.22019760e-001, 6.83092028e-002, -3.71565409e-002,
       9.55848210e-003, 5.05685573e-003, 5.65929413e-002,
       3.90764466e-003, 2.80849002e-002, -5.51809706e-002,
       -3.71162109e-002, -2.83556506e-002, -4.42046411e-002,
       -1.03194704e-002, 1.88346598e-002, -8.49525444e-003,
       -9.41924974e-002, -1.26938699e-002, -2.13337094e-002,
       -1.01908147e-001, -7.84443021e-002, 2.43644323e-003,
       -4.09610150e-003, 1.20255100e-002, -6.45229071e-002,
       -1.05938181e-001, -2.46474594e-002, -2.19969898e-002,
       -7.40192980e-002, 7.28588626e-002, 8.87513801e-004,
       9.97662079e-003, 8.46779719e-003, 3.73033285e-002,
       -2.90512592e-002, 3.57333682e-002, -4.39368896e-002,
       -1.20144717e-001, 3.17655392e-002, -2.76015815e-003,
       1.08245663e-001, 5.09073213e-002, -3.30179278e-003,
       -5.12382202e-002, 5.04784798e-003, -5.66412397e-002,
       -5.99415926e-003, -5.34190089e-002, -1.22139296e-002,
       1.29131796e-002, 9.91760660e-003, -7.56987557e-003,
       -6.19312413e-002, -2.24549137e-003, 1.98756196e-002,
       -2.01884005e-002, -6.97553977e-002, -6.60152286e-002,
       -3.34911197e-002, -8.91011804e-002, -3.37143503e-002,
       -7.40689263e-002, -2.24804692e-002, -6.15995117e-002,
       2.77751544e-003, -5.72333708e-002, -4.79246788e-002,
       7.51854777e-002, 2.77279224e-003, 4.21193801e-002,
       3.10050193e-002, 5.27844802e-002, 3.95467915e-002,
       -3.00684609e-002, -3.85174118e-002, -2.79240292e-002,
       -2.87533309e-002, 1.53128002e-002, 2.18695309e-002,
       -1.98982898e-002, 2.50679464e-003, -1.02587283e-001,
       -4.78574298e-002, -2.88721602e-002, 3.85063468e-003,
       1.11223599e-002, 8.29218887e-003, -4.82298099e-002,
       -4.50359695e-002, -3.71310003e-002, -6.98800832e-002,
       -1.10022947e-001, -2.69209221e-003, 1.85383670e-003,
       -5.92104904e-002, -6.10505305e-002, -8.45805034e-002,
       -4.52760197e-002, 8.90329306e-004, -5.87502308e-002,
       -2.68602883e-003, -1.59119498e-002, 3.63185890e-002,
       5.49316593e-002, 7.30032995e-002, 5.53333294e-003,
       6.40040711e-002, 1.84774008e-002, -5.76280477e-003,
       -3.21087688e-002, 4.25160583e-003, 1.16651999e-002,
       -1.44864211e-003, 2.25374401e-002, -3.36708017e-002,
       6.98319525e-002, -4.22323542e-003, -8.89401045e-003,
       -7.94339329e-002, 5.19972816e-002, 6.06520101e-002,
       4.13349196e-002, 1.44032843e-003, -9.58523527e-002,
       -3.96473110e-002, 4.23211418e-002, 1.75046492e-002,
       -4.48790193e-002, -7.59733608e-003, 2.01117098e-002,
       4.67362218e-002, 9.01117325e-002, -7.86918774e-002,
       -4.68248203e-002, -5.08013889e-002, -3.99383716e-003,
       -5.34633100e-002, 1.08572301e-002, -3.59933302e-002,
       -7.09790811e-002, 3.55154909e-002, 2.68038698e-002,
       3.47152911e-002, 1.79039296e-002, 5.47127314e-002,
       9.62048303e-003, -3.18021514e-002, 5.86443096e-002,
       2.33061407e-002, 1.63314398e-002, -5.61668091e-002,
       -1.02454290e-001, -8.30218866e-002, 7.29132220e-002,
       -1.97259001e-002, -2.61963308e-002, -2.48532705e-002,
       -4.62759212e-002, 1.48853404e-003, 5.51418513e-002,
       -1.27085997e-002, -1.94889996e-002, 6.37358576e-002,
       5.00229187e-002, -3.00979801e-002, 8.76216311e-003,
       -2.47423798e-002, -5.50489090e-002, 1.74034527e-003,
       -3.33366692e-002, 1.52498698e-002, 1.16637617e-001,
       -1.32344989e-003, -6.60845265e-002, 5.68716601e-002,
       -6.89525274e-004, -4.40235212e-002, 9.45020989e-002,
       -4.22268398e-002, -5.36098294e-002, 1.77953094e-002,
       2.56138798e-002, -1.10754102e-001, -8.77790991e-003,
       -1.09950397e-002, -1.03802659e-001, 3.10345702e-002,
       -2.10574102e-002, -7.37171695e-002, 5.14670983e-002,
       1.05814323e-001, -8.61796811e-002, -2.89210696e-002,
       1.09219896e-002, 1.45515427e-001, -2.24320893e-003,
       -5.81803285e-002, -7.39074200e-002, 5.70126101e-002,
       1.29370198e-001, -4.98665087e-002, 1.01824149e-001,
       5.02865016e-002, 1.25156254e-001, 9.17504132e-002,
       6.40498325e-002, 1.52339404e-002, 9.46056172e-002,
       6.10663109e-002, -1.42669976e-001, -2.92670298e-002,
       2.76217107e-002, 2.16415096e-002, -9.58488265e-004,
       -4.23136204e-002, -9.86650884e-002, 4.32224385e-002,
       5.87203391e-002, -4.83884700e-002, 6.31925315e-002,
       2.44379807e-002, -3.60687599e-002, 9.38737206e-003,
       4.28999104e-002, -1.02741104e-002, 8.15688521e-002,
       8.75117481e-002, -1.31913543e-001, 8.16054735e-003,
       -1.45216100e-002, 2.95267701e-002, 3.61594483e-002,
       -2.09128903e-003, 2.24669296e-002, 9.62328687e-002,
       9.41212326e-002, -2.92475801e-002, -7.81518593e-002,
       -2.20307894e-002, -2.02566991e-003, 1.09473299e-002,
       -1.44233201e-002, 2.83856094e-002, 1.18823707e-001,
       7.28798332e-003, -1.03459649e-001, 7.56121725e-002,
       -2.04966106e-002, 4.44177445e-003, 1.60934702e-002,
       -4.89315800e-002, -8.75824317e-002, -7.67420698e-003,
       8.86237770e-002, 6.09812103e-002, 6.56588674e-002,
       7.32981879e-003, 3.55840698e-002, -3.87435183e-002,
       -2.49005500e-002, -6.77107498e-002, 9.93922278e-002,
       -1.06607703e-002, 1.38299502e-002, -7.28908032e-002,
       7.47184316e-003, 1.06214307e-001, -2.87865903e-002,
       2.38352492e-002, -3.27464603e-002, 2.13700794e-002,
       3.83729003e-002, 2.45099198e-002, -4.29681800e-002,
       -2.89514307e-002, 5.32737002e-002, 1.49902003e-002,
       4.99873199e-002, 1.29386574e-001, 9.39187035e-002,
       4.29239012e-002, -3.35919410e-002, -6.80949166e-002,
       1.12579605e-002, 1.72904551e-001, -3.43073308e-002,
       -6.25523329e-002, -1.81311406e-002, 1.17268570e-001,
       -6.12759888e-002, -8.67790878e-002, -3.42987217e-002,
       4.68493812e-002, 8.16141963e-002, 3.53877395e-002,
       1.83388405e-002, 1.13218553e-001, 3.26184481e-002,
       -4.82629910e-002, 1.75240692e-002, -1.79641396e-002,
       -1.04645491e-001, -3.30041884e-003, 2.29343961e-004,
       1.45729203e-002, -2.13298202e-002, -2.60292292e-002,
       -9.87351313e-003, 4.27387208e-002, -2.10331604e-002,
       -7.99406469e-002, 2.61495803e-002, -2.11166609e-002,
       -6.96491301e-002, -1.34534895e-001, -6.86187819e-002,
       -6.09341264e-003, 8.25144574e-002, 1.56124994e-001,
       2.46531400e-003, 8.88424646e-003, -4.15299907e-002,
       2.05485299e-002, 5.27795292e-002, -3.08778808e-002,
       2.81757899e-002, 1.39390767e-001, 7.64104575e-002,
       -3.62762697e-002, -3.01509798e-002, -4.04153988e-002,
       -1.36069003e-002, -6.22720495e-002, -2.73822304e-002,
       1.35776103e-001, 1.52357668e-001, -5.39292209e-002,
       -1.11759543e-001, 2.15712897e-002, 1.14648100e-002,
       -5.26493713e-002, -6.59517422e-002, -2.74917502e-002,
       1.18122540e-001, 1.74041495e-001, -6.13703504e-002,
       -1.10034779e-001, -1.35162100e-002, -1.74591597e-002,
       -8.57744068e-002, -4.46990915e-002, -6.10611513e-002,
       1.05597578e-001, 2.08068132e-001, -9.17494819e-002,
       7.09621934e-004, 3.57937403e-002, 7.21511468e-002,
       2.22174209e-002, 1.82774197e-002, -7.90785067e-003,
       1.48955397e-002, 1.45199597e-001, -6.42583072e-002,
       2.99039893e-002, -1.80181325e-003, -1.40152797e-002,
       -4.17113416e-002, -3.70530109e-003, -9.09048095e-002,
       9.52071324e-002, 8.84551629e-002, -2.65175309e-002,
       -3.01673003e-002, 2.56244801e-002, 3.56381610e-002,
       -3.81788090e-002, 1.43338498e-002, 2.25698296e-002,
       2.87212003e-002, 1.00193396e-002, -6.33226037e-002,
       4.33840603e-002, 7.00180680e-002, -4.70572188e-002,
       -7.31890723e-002, 2.63045691e-002, 3.10638193e-002,
       6.64834231e-002, 1.09131798e-001, -1.63081493e-002,
       2.91030798e-002, 2.89510898e-002, 8.04025382e-002,
       6.96931034e-002, 6.79773390e-002, 6.08639978e-003,
       4.16588830e-003, 8.92672613e-002, -3.12364809e-002,
       2.70014592e-002, 1.16873402e-002, -1.63159408e-002,
       4.61015804e-003, 8.51359498e-003, -3.54422405e-002,
       3.57199386e-002, 4.29766066e-003, -1.97007693e-002,
       -8.79793242e-003, 9.60798785e-002, 1.54422196e-002,
       -3.92370708e-002, 7.30858594e-002, 6.06126189e-002,
       1.31683104e-004, -7.98222050e-003, 2.39926092e-002,
       -6.08438887e-002, -2.74342895e-002, -5.47552295e-002,
       -4.13131118e-002, 3.55975591e-002, 3.05534191e-002,
       2.98143309e-002, 1.48605153e-001, 1.76678691e-002,
       2.94525698e-002, 4.89823818e-002, 1.02692200e-002,
       2.81165801e-002, 8.26709121e-002, 2.73215398e-002,
       -1.23769296e-002, 1.17601559e-001, 3.80206294e-002,
       -3.30975391e-002, 5.24957618e-003, -2.46050991e-002,
       2.69145109e-002, 5.39998785e-002, -1.01335064e-001,
       6.38543665e-002, -1.81800500e-002, 2.25950293e-002,
       3.57313491e-002, 1.04284799e-002, -4.15340215e-002,
       -4.04302888e-002, 1.64357498e-002, 8.32667723e-002,
       4.61383024e-004, -5.30809499e-002, -8.53622332e-002,
       -1.61011645e-003, -2.16371994e-002, -1.78335197e-002,
       3.85963693e-002, 8.49888474e-002, -1.72521602e-002,
       8.62513110e-002, 1.09950870e-001, 9.17764381e-002,
       8.49834681e-002, 7.64648989e-002, 5.58050200e-002,
       2.69351602e-002, 9.99691263e-002, 9.07032713e-002,
       6.66719973e-002, 5.87300807e-002, -2.24784203e-002,
       7.77232125e-002, 1.24084361e-001, 1.26292527e-001,
       -8.41997913e-004, 1.47778299e-002, 9.16599035e-002,
       -2.98401713e-003, -6.46644682e-002, -7.05730170e-002,
       2.09516948e-004, 2.21020896e-002, -2.15880908e-002,
       -8.60250592e-002, -2.28483602e-002, 4.01876355e-003,
       9.56660323e-003, -2.07397807e-002, -4.63513806e-002,
       -7.59423291e-003, -1.37739303e-002, -4.55935895e-002,
       -1.32847399e-001, -8.67140591e-002, -3.65439504e-002,
       1.14286896e-002, 3.28789093e-002, -4.39298302e-002,
       6.14295900e-002, 1.77108899e-001, 1.03852570e-001,
       1.32913701e-002, 1.00676328e-001, 1.24508291e-001,
       -4.47670892e-002, 9.04914364e-002, 4.58931215e-002,
       1.11679070e-001, 8.58753771e-002, 4.76758294e-002,
       1.67188141e-003, 2.35980209e-002, -3.80885191e-002,
       3.12627181e-002, -1.91902891e-002, -5.69891818e-002,
       -2.36511193e-002, -6.51903227e-002, -5.59935793e-002,
       -7.09730834e-002, -3.30181196e-002, -4.71910201e-002,
       -2.56629698e-002, 1.32407397e-002, -9.23067182e-002,
       -5.51823191e-002, -4.71286401e-002, -3.38090286e-002,
       -6.71947896e-002, 1.18390797e-002, -9.32673812e-002,
       1.64286494e-002, 3.78986709e-002, -6.61567831e-003,
       7.79638588e-002, 7.24657401e-002, 4.70634699e-002,
       -2.52343696e-002, -1.69683006e-002, -8.06886628e-002,
       6.03088811e-002, 1.05270602e-001, -6.61175624e-002,
       2.97734607e-002, 2.62183007e-002, 1.91385504e-002,
       -8.47936571e-002, -6.32241815e-002, -1.35706156e-001,
       -7.64449015e-002, 9.31900274e-003, -8.09514895e-002,
       -1.01979032e-001, -5.20402491e-002, 1.41315097e-002,
       -7.80041069e-002, -1.88512206e-002, -7.50938132e-002,
       -1.01363257e-001, -5.21235503e-002, -9.94406492e-002,
       -1.33606605e-003, -6.34261668e-002, -4.17855009e-002,
       -1.23737231e-001, -2.83273607e-002, -6.05750084e-002,
       5.83007000e-002, 7.60428235e-002, -6.46258667e-002,
       8.02447461e-003, 1.15801252e-001, 1.23322122e-001,
       1.97846200e-002, -2.72378162e-003, 5.85075207e-002,
       -4.67448086e-002, 5.14806211e-002, -2.62542837e-003,
       1.12533547e-001, 9.89371613e-002, 9.78509337e-002,
       -4.65925708e-002, -1.10242898e-002, -7.00230822e-002,
       3.08891293e-002, -2.56554894e-002, -7.67144933e-002,
       3.17443861e-003, -1.07835136e-001, -2.31426992e-002,
       -1.10895552e-001, -1.02476804e-002, 3.11602093e-002,
       -4.96482514e-002, 2.28182506e-002, 5.50005678e-003,
       -8.42785612e-002, -1.46854952e-001, -7.71975517e-002,
       -1.33426681e-001, -4.52551097e-002, -9.91420969e-002,
       2.58885901e-002, 3.46927904e-002, 4.66401987e-002,
       1.16881900e-001, 9.64727476e-002, 1.08578153e-001,
       -1.44872600e-002, 4.29975800e-002, -6.76315129e-002,
       1.33257592e-003, 1.43315762e-001, 7.57433996e-002,
       9.16620493e-002, 5.67492582e-002, 1.13255531e-001,
       -1.10649401e-002, 2.06216108e-002, -1.14848398e-001,
       -7.49213696e-002, -2.86429301e-002, -1.27563803e-002,
       -6.94603175e-002, -1.01016521e-001, -4.11349796e-002,
       -2.21478306e-002, -1.27394199e-002, -7.48039335e-002,
       -1.05560407e-001, -7.62211233e-002, -9.98839289e-002,
       -1.14539608e-001, -1.20739028e-001, -9.41279531e-002,
       -7.14658797e-002, -4.05453704e-002, -6.12708293e-002,
       4.22112197e-002, 7.68811330e-002, 4.09925617e-002,
       1.26637340e-001, 1.46838024e-001, 2.17617735e-001,
       1.25253275e-001, 1.84317917e-001, -1.66402373e-003,
       2.37777247e-003, 1.44547503e-002, 3.50941606e-002,
       2.65469700e-002, 1.71673894e-002, 5.37401102e-002,
       2.94417404e-002, 1.13239273e-001, -1.48545597e-002,
       -1.61132999e-002, -1.85554172e-003, -1.70854907e-002,
       -5.43575287e-002, -5.30210100e-002, 5.26037812e-002,
       -3.58294509e-002, -3.42867890e-004, 1.36076682e-003,
       -4.43607308e-002, -4.22843210e-002, 3.28129083e-002,
       -5.48083596e-002, -1.01977721e-001, -7.20627904e-002,
       -1.07410587e-001, -2.36694608e-002, 1.02784753e-001,
       -2.74783419e-003, -3.24247703e-002, 2.30895504e-002,
       2.83586904e-002, 1.03487991e-001, 1.95803583e-001,
       1.02520272e-001, 8.03992897e-002, 5.52555397e-002,
       -1.32508650e-001, -1.43953517e-001, 3.13586881e-003,
       -3.38707082e-002, 8.94669443e-003, 5.40615693e-002,
       -4.97324532e-003, -1.18911397e-002, 2.82919413e-004,
       -3.90155688e-002, -4.89870496e-002, 2.16451995e-002,
       -1.38290599e-002, -1.85041595e-002, 1.86934695e-002,
       -2.45005991e-002, 2.29167808e-002, 8.19646269e-002,
       3.30915302e-002, -1.06299743e-001, 2.47392394e-002,
       5.34439385e-002, -2.40482297e-002, -3.24364305e-002,
       -5.55244600e-003, -8.00999627e-002, 2.81153899e-002,
       4.23574187e-002, 1.85900405e-002, 4.90212291e-002,
       -1.43825198e-002, -1.52685298e-002, 2.04419494e-002,
       -5.00865988e-002, 4.24411297e-002, 7.61181563e-002,
       4.95047010e-002, -6.02054894e-002, -4.26026015e-003,
       1.31335124e-001, -1.43873803e-002, -1.95880700e-002,
       -4.04415205e-002, -1.24250449e-001, 2.84353318e-003,
       -5.04277609e-002, -9.12148431e-002, 7.34345755e-003,
       9.38884690e-002, 1.18003137e-001, 4.72295098e-003,
       4.44378285e-003, -7.98491687e-002, -3.61373685e-002,
       4.49091494e-002, -2.24648304e-002, 4.68107089e-002,
       5.24087101e-002, 2.15720609e-002, -4.60343100e-002,
       -1.19792903e-002, -2.74877902e-002, 1.36210486e-001,
       8.81215483e-002, -7.80204833e-002, 4.86458559e-003,
       -1.59883592e-002, 1.02444999e-002, -3.46351713e-002,
       -2.30423901e-002, -8.69266465e-002, 6.65512830e-002,
       5.78580312e-002, -1.26407593e-001, 2.30747201e-002,
       7.33740181e-002, 7.52543435e-002, 4.94376309e-002,
       -2.24103406e-002, -9.97823775e-002, 1.44879937e-001,
       -6.57052100e-002, -7.85548165e-002, 2.83022206e-002,
       -5.29603509e-004, -4.66989502e-002, -1.18227839e-001,
       -1.22464523e-001, -1.53656602e-001, -2.96912696e-002,
       8.07820112e-002, 1.35125980e-001, 1.15056850e-001,
       4.74067293e-002, 1.37602203e-002, -5.85297793e-002,
       -1.53780896e-002, -5.54111898e-002, 2.49106493e-002,
       -2.87078600e-002, 2.76097804e-002, 2.38361761e-001,
       2.23474294e-001, 1.03064664e-001, -6.91907033e-002,
       -1.01320393e-001, -2.01983422e-001, -5.04055992e-002,
       2.71630764e-001, 3.69870067e-001, 3.45404655e-001,
       2.90957808e-001, 5.64970598e-002, 4.12573703e-002,
       7.50588328e-002, -2.73783598e-002, -8.43431335e-003,
       7.36819506e-002, 1.65387597e-002, -9.40295532e-002,
       -9.57435891e-002, 1.47433700e-002, -7.12856129e-002,
       -3.46073695e-002, 1.14389412e-001, 1.37526006e-001,
       -6.38545230e-002, -6.31033778e-002, 8.19548313e-003,
       1.16224699e-001, 5.05133113e-003, -7.60275424e-002,
       6.69566020e-002, 2.57239282e-001, 9.03789997e-002,
       2.88262665e-001, 1.31653801e-001, -5.31261414e-002,
       -2.13719793e-002, -3.44223194e-002, -6.25567883e-002,
       3.89966704e-002, 1.83910280e-001, 2.60166496e-001,
       3.37446183e-002, 1.86046492e-002, 1.90775856e-001,
       1.81605428e-001, 3.43634398e-003, -3.03678196e-002,
       1.96830377e-001, 3.53781909e-001, 2.49684826e-001,
       -3.22264917e-002, 2.89723814e-001, 4.30916339e-001,
       3.07783574e-001, 2.33526602e-002, -9.87739936e-002,
       -6.85245218e-003, 8.94524008e-002, -8.15068632e-002,
       2.79249307e-002, 2.48068422e-001, 1.73384860e-001,
       6.23180084e-002, -1.04323827e-001, -1.66533217e-001,
       -1.31978989e-001, -8.53157565e-002, -1.92715272e-001,
       -1.35363653e-001, 2.22401991e-001, 3.92195880e-001,
       2.65977174e-001, -1.23164896e-002, 1.01617901e-002,
       1.33798748e-001, 1.20183341e-001, -4.85295318e-002,
       -7.91527033e-002, 7.03601167e-002, 3.87723115e-003,
       -6.12680502e-002, -1.50151700e-001, -1.14065148e-001,
       -8.55653137e-002, -7.42933303e-002, -1.61154911e-001,
       1.32140622e-001, 2.56913692e-001, 5.69774993e-002,
       6.86191171e-002, -6.02903729e-003, -7.94562511e-003,
       4.79957089e-002, 6.69516474e-002, -1.92684196e-002,
       6.20630793e-002, 1.34509832e-001, -6.38149530e-002,
       -2.98370165e-003, -3.48297097e-002, 7.53991678e-003,
       3.89561094e-002, 1.14642613e-001, 1.66997109e-002,
       8.27818643e-003, -7.49160210e-003, -1.17125623e-001,
       -1.06506214e-001, -1.03538796e-001, -4.99410592e-002,
       -7.65618810e-004, 3.02376691e-002, -4.75926995e-002,
       -7.30268583e-002, -5.82501218e-002, -1.31563485e-001,
       -1.06397472e-001, -1.93936840e-001, -9.97368321e-002,
       -7.91890770e-002, 4.63177625e-004, -6.61382044e-004,
       1.58538684e-001, 8.56119916e-002, -7.66009316e-002,
       -8.01526532e-002, -6.16407283e-002, 1.88257694e-002,
       -7.29908410e-004, 6.84089214e-002, 3.84376384e-002,
       2.02749267e-001, 2.20288143e-001, -5.26101235e-003,
       1.45243499e-002, -6.33162335e-002, 2.86506396e-002,
       5.67374006e-002, 1.21715643e-001, 3.83719616e-002,
       3.55546698e-002, -2.66291406e-002, -1.02801234e-001,
       -6.52628466e-002, -1.10663511e-001, -8.98842365e-002,
       -1.01036780e-001, 8.10526591e-003, 5.95238712e-003,
       2.61772107e-002, -1.70574207e-002, -1.08979560e-001,
       -8.00499097e-002, -1.12719931e-001, -6.18564710e-002,
       -6.10371195e-002, 1.59704108e-002, -5.92360608e-002,
       9.41072628e-002, 2.28585675e-001, 3.26338001e-002,
       6.77298978e-002, -9.00351629e-002, 1.01787001e-002,
       1.93168800e-002, 8.62835720e-002, -1.43000903e-002,
       1.09549448e-001, 1.66124523e-001, -2.43454408e-002,
       -3.31006795e-002, -4.23662700e-002, 1.21239200e-002,
       -6.15046406e-003, 6.95419386e-002, 3.01528294e-002,
       1.78795699e-002, 2.78166700e-002, -5.56115285e-002,
       -8.96244217e-003, -4.97148894e-002, 7.51028433e-002,
       1.77528206e-002, 5.88989705e-002, -7.98142701e-002,
       3.64764296e-002, -3.73833324e-003, -8.89457464e-002,
       -6.42943531e-002, -8.06827620e-002, 3.56770419e-002,
       -7.13193566e-002, -7.21910037e-003, -9.56666768e-002,
       1.78860903e-001, 1.49117246e-001, 2.07003206e-002,
       -5.01712002e-002, -4.99262214e-002, 1.57014299e-002,
       -9.90690291e-002, 6.45619333e-002, 1.53295070e-001,
       1.88207671e-001, 1.16898611e-001, -1.17851300e-002,
       -2.22516302e-002, -1.90531798e-002, 1.02712236e-001,
       -7.27029052e-003, 1.16642334e-001, 1.47969022e-001,
       7.77189285e-002, 2.40001306e-002, -5.36179692e-002,
       -1.97288804e-002, 1.37617700e-002, 6.74004033e-002,
       -6.52539507e-002, 5.72617799e-002, -2.40498092e-002,
       -1.40185669e-001, -2.07498707e-002, -4.62196991e-002,
       -4.68862690e-002, -1.84205901e-002, 7.72272721e-002,
       -4.85288315e-002, 1.52900396e-002, -1.96394950e-001,
       1.08170733e-001, 3.79585996e-002, -9.43520591e-002,
       -7.98437819e-002, -3.38344015e-002, 1.10813327e-001,
       2.23736595e-002, 1.27032563e-001, 2.16138929e-001,
       2.91878991e-002, 4.66472283e-003, -1.02742657e-001,
       -4.85413112e-002, -3.46305710e-003, 8.65226835e-002,
       2.25154608e-002, 9.63605195e-002, 1.71807542e-001,
       -9.27238837e-002, 4.59174305e-004, -1.17230482e-001,
       -1.22101113e-001, -1.55475378e-001, 7.21818581e-002,
       -5.29784597e-002, 3.77993993e-002, 5.15087508e-002,
       -3.80230993e-002, 3.87064517e-002, -1.52506992e-001,
       -8.69649872e-002, -2.02156007e-002, 4.11892608e-002,
       -1.51779741e-001, 1.57764703e-002, 1.02493010e-001,
       7.50041893e-003, 1.72180608e-002, -6.82898313e-002,
       -2.39759609e-002, -6.59897700e-002, -4.31759283e-002,
       -8.06498006e-002, 6.66632550e-003, 3.33348401e-002,
       7.09362030e-002, 8.23106393e-002, -6.57790303e-002,
       -6.69884384e-002, -6.98401928e-002, -6.50802329e-002,
       -1.41450897e-001, -2.39323899e-002, 6.48530275e-002,
       8.83263443e-003, 9.25107971e-002, -7.55757913e-002,
       -5.06769903e-002, -9.79874805e-002, -6.70325831e-002,
       -1.40562937e-001, 3.24599408e-002, 1.25541434e-001,
       1.76162105e-002, 1.29803270e-001, -4.08194996e-002,
       -1.19069092e-001, -1.48130149e-001, -8.37686285e-002,
       -1.22006811e-001, 4.98813689e-002, 5.42424694e-002,
       -3.90952639e-003, 3.25573310e-002, -1.27178371e-001,
       -7.46149272e-002, -5.70396408e-002, -1.73618905e-002,
       -8.02643299e-002, -5.43389395e-002, -1.71935894e-002,
       2.88627502e-002, 1.77265294e-002, -9.16351825e-002,
       3.57789593e-003, -1.01299927e-001, -2.65376400e-002,
       -8.13141465e-002, -3.84798609e-002, -7.62157550e-004,
       6.48664832e-002, 1.96756691e-001, -4.91915606e-002,
       -7.05912933e-002, -4.85778488e-002, -1.04238298e-002,
       -8.32865313e-002, 3.66030186e-002, -3.69684584e-002,
       4.96925898e-002, 8.24116170e-002, -1.25148579e-001,
       -6.12267591e-002, -3.75020206e-002, 6.52989605e-003,
       -1.02472126e-001, 2.56834608e-002, 4.51781414e-003,
       -3.73422913e-002, -1.13126403e-002, -5.41207418e-002,
       8.89345480e-004, -1.23889767e-001, -5.95923699e-002,
       -1.24186084e-001, -6.15164302e-002, -7.31026009e-002,
       2.44157501e-002, 7.02352822e-002, -7.54828900e-002,
       -7.57147965e-004, -9.06134769e-002, -8.11297596e-002,
       -6.92030564e-002, 9.54394229e-003, -1.21990200e-002,
       1.21273217e-003, -8.88989680e-003, -8.30930099e-002,
       -4.55266088e-002, -1.07398823e-001, -5.69103397e-002,
       -1.39280304e-001, 9.02774930e-002, 1.51230976e-001,
       3.17597613e-002, 1.77635774e-001, 3.29913251e-004,
       5.15188798e-002, -9.84407365e-002, -9.47528705e-002,
       -8.57124701e-002, 1.62415773e-001, 1.93360180e-001,
       8.57454538e-003, 1.14747323e-001, -1.49393398e-002,
       3.35237905e-002, -8.96624029e-002, -2.32231002e-002,
       2.66356803e-002, 5.44875003e-002, -3.53688300e-002,
       -7.21046329e-002, -6.80727735e-002, -3.12162098e-002,
       -5.93240783e-002, -1.72828600e-001, -1.58734977e-001,
       -4.95637804e-002, 1.60337705e-002, -1.23859458e-001,
       1.38785869e-001, 2.14680687e-001, 1.35100752e-001,
       2.09924370e-001, 8.84587765e-002, 8.10401291e-002,
       3.75417583e-002, 1.21731140e-001, 1.11031137e-001,
       1.06431223e-001, 1.39414772e-001, 1.16403840e-001,
       1.47868469e-001, 1.21823801e-002, 1.16075296e-002,
       3.54794003e-002, 8.79431069e-002, -1.69538409e-002,
       -7.69226104e-002, -8.23615789e-002, 6.79194089e-003,
       -2.45840307e-002, 1.30228937e-001, 1.09531872e-001,
       9.85777304e-002, 4.73592989e-002, -4.35349792e-002,
       -1.51733845e-001, -1.79044425e-001, -1.04503639e-001,
       -1.34181663e-001, -6.63309768e-002, -3.17038111e-002,
       -6.83899969e-002, -1.13501258e-001, -6.98391274e-002,
       1.90835431e-001, 1.76041275e-001, 7.73063228e-002,
       1.00226507e-001, 3.64281088e-001, 2.82919228e-001,
       1.26886249e-001, 1.59420356e-001, 1.40646607e-001,
       -1.12018533e-001, -1.39691085e-001, -9.08807665e-002,
       -1.41070470e-001, 5.11737391e-002, -2.63348082e-003,
       -1.07946098e-001, -9.71545503e-002, -5.28497696e-002,
       1.56566799e-002, 5.03120013e-002, 7.02111274e-002,
       -2.96302792e-002, 1.76695995e-002, 8.33364427e-002,
       -3.21138203e-002, 4.90096770e-003, 5.18667400e-002,
       -5.04573695e-002, -9.62476730e-002, -2.52599698e-002,
       6.91666901e-002, 1.21391602e-002, 5.33389896e-002,
       -3.44327986e-002, -1.00555271e-001, -6.29111528e-002,
       5.42851724e-003, -6.30360236e-003, 2.27025691e-002,
       -1.76979192e-002, 3.27368788e-002, 7.74607807e-002,
       7.77099328e-003, 5.04134595e-002, 1.64810307e-002,
       -2.32153405e-002, -9.93018597e-002, -2.29385309e-002,
       2.03498993e-002, -8.32420364e-002, 8.51006433e-002,
       -3.73283587e-002, -6.46540523e-002, -6.08694591e-002,
       1.36805043e-001, -1.14693880e-001, -3.89640592e-002,
       -7.14280978e-002, 2.67581246e-003, -3.63963209e-002,
       -9.84906033e-002, -1.10143341e-001, 1.74891472e-001,
       1.76109090e-001, -1.60915673e-001, -7.24889413e-002,
       1.56714097e-002, 2.37429962e-001, 7.55224898e-002,
       -6.27034903e-002, -7.30337873e-002, 2.54421860e-001,
       1.69031158e-001, -8.16874132e-002, -5.91389611e-002,
       -3.95409614e-002, 6.81776879e-003, -5.61531894e-002,
       -7.30303675e-002, -1.21763818e-001, 1.23851083e-001,
       2.20844641e-001, -5.54320589e-002, -3.31043117e-002,
       5.73159307e-002, 1.94818899e-001, 4.01642993e-002,
       -6.48075789e-002, -1.23534597e-001, 1.87334418e-001,
       -9.63121429e-002, -1.11920759e-001, 1.24045871e-001,
       1.56717479e-001, 1.92561284e-001, 1.08956173e-001,
       3.39147709e-002, -1.30320042e-001, -5.62690683e-002,
       -9.02560726e-002, 2.34851971e-001, 2.78123319e-001,
       2.67254919e-001, 7.25598037e-002, 1.65651366e-001,
       2.23884702e-001, 7.44106621e-002, -2.10031331e-001,
       -8.07533935e-002, -1.50319353e-001, 7.02383369e-002,
       1.08720407e-001, 1.81565180e-001, 2.00372532e-001,
       1.35719672e-001, -1.19156823e-001, -1.11319833e-001,
       -1.88780114e-001, 6.07462004e-002, 2.05788895e-001,
       1.24131091e-001, 3.93020697e-002, 2.91760147e-001,
       2.95027375e-001, 2.78562278e-001, -1.80360097e-002,
       1.66463852e-001, 1.92683190e-001, 1.90068204e-002,
       6.02628700e-002, 2.35868432e-003, 1.55819897e-002,
       2.70722993e-002, 1.13830142e-001, 1.21039920e-001,
       3.90735008e-002, 4.63735312e-002, 9.02099535e-002,
       1.19197257e-001, -3.63007211e-003, 2.22015493e-002,
       1.03368312e-001, 1.73518822e-001, 1.22597307e-001,
       1.89833537e-001, 1.57368645e-001, 1.16072502e-002,
       -1.69072300e-002, -9.69582412e-004, 7.21381307e-002,
       1.16161304e-002, 1.78648591e-001, 2.44861469e-001,
       1.82089910e-001, 2.01774955e-001, 5.97252809e-002,
       -8.93934630e-003, -2.31695492e-002, 1.44366100e-001,
       1.41144976e-001, 5.52094989e-002, 6.35358989e-002,
       -1.91249207e-001, 1.01747133e-001, 2.94149190e-001,
       2.64481276e-001, 9.34496000e-002, 1.52840361e-001,
       1.97975069e-001, 1.13697924e-001, -1.27227530e-001,
       -2.13963673e-001, -2.00823508e-002, -6.56669512e-002,
       -1.66215003e-002, -3.93700302e-002, 4.77834307e-002,
       5.01727387e-002, -2.29906198e-002, -2.02084959e-001,
       -6.39589801e-002, 1.37217760e-001, 2.25445569e-001,
       1.48883566e-001, 8.68713185e-002, 2.70880938e-001,
       3.22066128e-001, 9.78220031e-002, -1.85232431e-001,
       -1.72321811e-001, -1.04153100e-002, 4.00865413e-002,
       4.19970192e-002, -8.08129907e-002, -3.75542082e-002,
       -4.80964594e-002, -5.22208102e-002, -2.17092007e-001,
       -6.62294030e-002, 2.94528101e-002, -4.60043512e-002,
       -5.25607690e-002, -8.43294188e-002, 2.84809992e-002,
       3.49056385e-002, 8.28621630e-003, -1.10512458e-001,
       -1.12105973e-001, -1.99828893e-002, -5.36940508e-002,
       -8.86929333e-002, -1.87995061e-001, -5.43659814e-002,
       -5.01163416e-002, -5.41971587e-002, -6.15185685e-002,
       -1.08278051e-001, 4.34673503e-002, 4.01608311e-002,
       1.52081996e-002, -1.21733159e-001, -4.88028489e-002,
       -1.10140601e-002, 3.25084701e-002, -6.00955114e-002,
       -3.08293197e-002, -2.29513403e-002, -6.85683414e-002,
       -8.77524912e-002, -2.37933889e-001, -9.17454064e-002,
       -5.53832203e-002, -4.32103090e-002, -1.18747592e-001,
       -4.22184393e-002, -6.07046783e-002, 1.19448900e-002,
       2.60856505e-002, -3.89214009e-002, -1.64315104e-002,
       -2.60203406e-002, -1.30547201e-002, 3.92009988e-002,
       -6.51426092e-002, 1.12691801e-002, -6.27710763e-003,
       -2.72004697e-002, -1.11336343e-001, 3.30033004e-002,
       2.39847209e-002, 4.07966487e-002, -1.05644479e-001,
       5.96615896e-002, 1.19522102e-002, -3.17944102e-002,
       -1.69258993e-002, -6.17784113e-002, 1.84157602e-002,
       -5.51078189e-003, -6.82176501e-002, -3.19188796e-002,
       -9.54547599e-002, 3.03054992e-002, -4.89615202e-002,
       -2.91462392e-002, -1.32833436e-001, -4.78341915e-002,
       6.07836898e-003, -1.44953802e-002, -1.33582115e-001,
       -9.68777388e-002, -2.81379297e-002, 1.21349804e-002,
       6.65001124e-002, -2.03906707e-002, 1.33561984e-001,
       5.98641485e-002, -9.12760664e-003, -1.87801600e-001,
       -1.19928174e-001, -6.34223670e-002, 1.22953402e-002,
       7.14323074e-002, 1.07130088e-001, 1.10857651e-001,
       6.56919032e-002, -2.95639895e-002, -1.62883252e-001,
       -1.39935493e-001, -1.29251499e-002, 3.83301303e-002,
       9.13038403e-002, -5.08625694e-002, 5.61732911e-002,
       -3.89666706e-002, -6.28231093e-002, -1.14900097e-001,
       -1.42641097e-001, -4.53049913e-002, 1.59818903e-002,
       9.16779712e-002, 8.66329372e-002, 4.88527715e-002,
       -5.74121885e-002, -7.56576881e-002, -1.71364635e-001,
       -2.61942204e-002, -2.47757901e-002, 2.67958697e-002,
       1.16219521e-001, 8.78839120e-002, 1.55206397e-001,
       4.70954888e-002, 4.50448282e-002, -1.02140740e-001,
       -1.22933723e-001, -4.82054614e-002, -5.48483394e-002,
       5.47375418e-002, 7.34644532e-002, 5.57727702e-002,
       -8.20996463e-002, 3.46297510e-002, -2.09622338e-001,
       -9.32459831e-002, 3.79481679e-003, 3.61763313e-002,
       1.67424083e-001, 7.05810711e-002, 1.02049597e-001,
       -6.79534599e-002, 3.22807301e-003, -1.25893086e-001,
       -1.74969599e-001, 2.07831394e-002, -7.69432411e-002,
       1.21846400e-001, 8.99716392e-002, 4.79349717e-002,
       -1.13833793e-001, -8.04635882e-002, -2.57168353e-001,
       -8.08096230e-002, 6.80711539e-003, -2.93028001e-002,
       -3.04938294e-003, -1.11062862e-001, -4.62885983e-002,
       -7.82164931e-002, 7.70127494e-003, -1.02477059e-001,
       1.21042714e-003, 2.05738589e-001, -3.24100517e-002,
       8.42972286e-003, 1.94646399e-002, -1.19797299e-002,
       -1.45799756e-001, 4.23361398e-002, -4.14096704e-003,
       -6.86643571e-002, -2.43186206e-002, -1.35291383e-001,
       1.25891645e-003, -1.14251107e-001, -4.30365093e-002,
       -1.69481505e-002, 5.72021008e-002, -1.60402074e-001,
       2.77289599e-002, 5.49834482e-002, -1.50105670e-001,
       1.45086600e-002, 2.35030297e-002, -4.30100411e-002,
       -4.95180190e-002, 2.17022330e-001, -3.15915495e-002,
       -1.96330305e-002, 1.82326466e-001, -3.26387510e-002,
       -2.88476888e-003, 1.58756208e-002, -1.94303901e-003,
       -7.78949410e-002, 4.67415601e-002, -6.25576358e-003,
       8.92596170e-002, 2.13537470e-001, 1.25467703e-002,
       -6.99997619e-002, -5.93132786e-002, -1.88432708e-002,
       -4.30627204e-002, 1.17941357e-001, 3.84272784e-002,
       -3.90703008e-002, 5.63611388e-002, -9.76600870e-002,
       -2.10400000e-002, 8.72711372e-003, -2.73687709e-002,
       -5.11227399e-002, 1.69968143e-001, 2.95578502e-002,
       2.09401399e-002, 8.41430426e-002, -3.33576202e-002,
       -3.61745693e-002, -5.80824800e-002, -8.87210071e-002,
       2.92770509e-002, 2.70778388e-001, 6.07510805e-002,
       7.47826099e-002, 1.52828306e-001, -3.90845388e-002,
       -5.10178208e-002, -9.51998029e-003, -3.27241607e-002,
       -8.73562470e-002, 7.63344020e-002, -7.18531236e-002,
       1.38412863e-001, 7.81264603e-002, -1.29014507e-001,
       -5.48858903e-002, -5.64457811e-002, -3.29070315e-002,
       -1.11847572e-001, 3.75156999e-002, -5.97815290e-002,
       -9.15527567e-002, 5.65731488e-002, -4.32818606e-002,
       -3.04793306e-002, -1.41313504e-002, -1.01810403e-001,
       -1.38401296e-002, 2.01325342e-001, -1.53687298e-002,
       -7.64116868e-002, 5.90677783e-002, -7.83314481e-002,
       -1.52380103e-002, -7.50260875e-002, -9.46188495e-002,
       -1.50132328e-001, 1.60506651e-001, 9.02138129e-002,
       8.47323611e-002, 3.38626690e-002, -9.14733931e-002,
       -9.17061791e-002, -8.49849805e-002, -5.11918701e-002,
       -1.04310401e-001, 1.04161799e-002, -3.06491293e-002,
       9.34021175e-002, 6.44852221e-002, -3.88105400e-002,
       -4.98543605e-002, -1.47940174e-001, -5.20011187e-002,
       -2.14449503e-002, 4.00082096e-002, 1.24208041e-001,
       -1.85165107e-002, -4.11673188e-002, -1.19517028e-001,
       -4.87903282e-002, -8.72251466e-002, -8.45473334e-002,
       -1.05491653e-001, 1.12519763e-001, 1.07663453e-001,
       1.92019835e-001, 6.12891316e-002, -2.73461491e-002,
       -8.83492306e-002, -1.69998258e-001, -3.54834795e-002,
       -5.36092324e-003, 8.29795375e-002, 7.22637773e-002,
       4.19452898e-002, 4.66867313e-002, 8.73902347e-003,
       6.98013902e-002, 5.65247983e-002, 5.87944500e-002,
       2.47707609e-002, 2.45142300e-002, 1.24336727e-001,
       5.60022704e-002, 6.88636974e-002, 3.86307612e-002,
       7.45905563e-002, 2.26413906e-002, 1.49546899e-002,
       6.34422004e-002, 6.94520772e-002, 2.93189902e-002,
       1.17193706e-001, 4.52742688e-002, 3.24819200e-002,
       2.08271481e-003, 2.04462595e-002, 1.14034489e-001,
       4.30389196e-002, 6.44466132e-002, 4.95902412e-002,
       8.17409381e-002, 9.24024731e-002, 4.89463918e-002,
       2.25293692e-002, -1.65253002e-002, 7.58701265e-002,
       6.06424883e-002, 1.39543951e-001, 2.77283192e-002,
       7.09303916e-002, 8.50123763e-002, 1.70130096e-002,
       9.05572176e-002, 3.34214360e-001, 2.01637819e-001,
       9.82102975e-002, 7.95136914e-002, 8.69512036e-002,
       -1.27577305e-001, -1.38659775e-001, -6.61006793e-002,
       -1.09855063e-001, 3.40681598e-002, -1.11633604e-002,
       -7.28176832e-002, -1.35257155e-001, -1.28447175e-001,
       8.95624980e-002, 9.17161033e-002, 1.00923173e-001,
       2.33853698e-001, 3.44895154e-001, 9.90174785e-002,
       2.00292207e-002, 1.23359904e-001, 7.60618970e-002,
       -1.48993298e-001, -1.56346217e-001, -6.49461821e-002,
       -1.76054705e-002, 3.40427682e-002, -1.32088453e-001,
       -1.21011689e-001, -1.82945743e-001, -1.65607095e-001,
       2.18388699e-002, -2.75261309e-002, 1.81363802e-002,
       2.00075693e-002, 1.31992400e-002, 8.03024173e-002,
       1.22053502e-002, 2.98233377e-003, -1.30706998e-002,
       5.97029701e-002, -5.34528382e-002, -3.38198207e-002,
       -9.87543724e-003, -6.86938688e-002, 3.95672992e-002,
       -3.10817603e-002, -5.73280901e-002, 2.17238609e-002,
       4.15976495e-002, 2.62783933e-003, 4.81322892e-002,
       9.35898274e-002, -8.18389002e-003, 1.72457397e-002,
       -2.54747402e-002, -4.96728793e-002, -2.39037592e-002,
       6.64050430e-002, -6.30656630e-002, 1.13751804e-002,
       5.58937788e-002, -8.23778734e-002, 2.45500095e-002,
       -3.05942204e-002, -8.95397812e-002, 6.85149729e-002,
       7.19026774e-002, -7.61079937e-002, 7.87237938e-003,
       -7.85830803e-003, 6.00695200e-002, -1.12672802e-002,
       -2.85743061e-003, -4.77289483e-002, 1.88494399e-002,
       1.50058568e-001, -6.26882091e-002, -1.98907200e-002,
       1.13839898e-002, 8.76045078e-002, 3.87900695e-002,
       -9.66926850e-003, -8.01296085e-002, 6.41455501e-002,
       -1.36294998e-002, -9.13552269e-002, 1.75515898e-002,
       4.45947386e-002, 9.65091735e-002, 5.21994792e-002,
       -2.19440833e-003, -7.03793913e-002, -1.59905404e-002,
       1.31033167e-001, -2.49260291e-002, -1.03254002e-002,
       -2.90330704e-002, 4.48915996e-002, 5.14808595e-002,
       1.85817294e-002, -2.91922800e-002, 8.29929635e-002,
       -4.59035896e-002, -1.57456324e-001, -9.06819776e-002,
       -2.97245309e-002, 1.29850179e-001, 2.23204851e-001,
       2.42619142e-001, 3.64264995e-002, -5.50642200e-002,
       2.67413049e-003, -3.83403189e-002, 6.44942373e-002,
       3.83486599e-002, 3.81699093e-002, 2.50392705e-001,
       3.42120171e-001, 3.24338824e-001, 1.88245729e-001,
       -8.59983936e-002, -1.75994083e-001, -1.53170153e-001,
       -9.91315469e-002, -2.85607204e-002, -5.30469902e-002,
       -1.06437842e-003, -6.64181337e-002, -7.50929788e-002,
       1.46336099e-002, -7.55191818e-002, -4.51037288e-002,
       -8.44620075e-003, 1.77217592e-002, 4.06823494e-002,
       2.02953070e-001, 1.57194465e-001, 5.71210310e-002,
       2.62969971e-001, 1.46577537e-001, 1.54731702e-002,
       -5.05277589e-002, -3.88134196e-002, -1.43788299e-002,
       -4.93017696e-002, 1.17195681e-001, 2.40984172e-001,
       2.64685988e-001, 3.16985786e-001, 1.01036079e-001,
       -1.09637501e-002, -1.36701297e-002, 1.71042323e-001,
       2.00653136e-001, 2.67622480e-003, -1.19003402e-002,
       1.83016077e-001, 9.45976973e-002, -6.35761917e-002,
       -6.47380129e-002, 1.37790600e-002, -1.00327753e-001,
       -6.38874024e-002, 3.80393048e-003, 6.20607808e-002,
       1.03491202e-001, 2.68043369e-001, 8.17918684e-003,
       -2.31435094e-002, 9.34422202e-003, 9.19838101e-002,
       3.68132591e-002, -8.77339672e-003, -9.66241807e-002,
       -2.71570794e-002, 1.35035172e-001, 8.96272808e-002,
       -6.57071499e-003, -3.20119895e-002, 2.85108238e-001,
       3.20957154e-001, 1.85126945e-001, -1.42308578e-001,
       -1.40485510e-001, -7.18129873e-002, -8.57540816e-002,
       -8.66167992e-002, -1.74160793e-001, 7.54326640e-004,
       5.60167693e-002, 1.35853916e-001, -4.96043712e-002,
       -7.70839229e-002, 1.06763333e-001, -4.40754592e-002,
       -7.20907822e-002, 3.66366282e-002, 2.89493173e-001,
       4.11271214e-001, 2.74311692e-001, -6.90032765e-002,
       -2.14741901e-001, -1.55786321e-001, -1.95554838e-001,
       -1.52096212e-001, -1.12691790e-001, 7.41600320e-002,
       1.89913303e-001, 2.68581718e-001, 1.95225906e-002,
       1.01792198e-002, 2.15984304e-002, -4.95165400e-003,
       -4.36816812e-002, -1.27216712e-001, -6.67395666e-002,
       -1.12752497e-001, 4.41340916e-002, 5.57831191e-002,
       3.89677100e-002, 3.56641710e-002, -5.87181598e-002,
       -7.38809034e-002, -1.79655626e-001, -8.57026801e-002,
       -1.52732313e-001, -6.02231808e-002, -6.99984729e-002,
       -6.81510568e-003, 6.29426166e-002, -6.54901436e-004,
       -1.12865400e-002, -2.28965692e-002, 4.84929010e-002,
       4.14080396e-002, 2.36819386e-001, 1.45457327e-001,
       1.98996495e-002, 1.20326623e-001, 3.87463090e-003,
       -6.02597650e-003, -5.91977499e-002, -3.06722391e-002,
       -7.78777674e-002, 1.08347267e-001, 2.15373002e-002,
       2.76564900e-002, 3.97554301e-002, -1.21829063e-001,
       -4.90011312e-002, -9.94009972e-002, -6.45361096e-002,
       -1.37572154e-001, -3.72138210e-002, 2.82737594e-002,
       -4.35124896e-002, 1.90703794e-002, -1.02841198e-001,
       -5.67115992e-002, -1.07606471e-001, -9.62400883e-002,
       -9.56559628e-002, -1.30365398e-002, 3.08053903e-002,
       1.41651100e-002, 5.84614202e-002, -5.42971538e-003,
       6.22147582e-002, -3.32032517e-002, -6.79179728e-002,
       -5.79134189e-002, 1.28513694e-001, 1.49903461e-001,
       3.63437384e-002, 1.42628849e-001, 4.33039106e-002,
       5.03256917e-002, -5.63191399e-002, 1.60613693e-002,
       4.38722298e-002, 2.23449945e-001, 1.57226354e-001,
       -4.69362810e-002, 3.00657898e-002, -2.52882647e-003,
       5.71762100e-002, -7.52972364e-002, -2.84858793e-002,
       -6.86875731e-002, -4.51729307e-003, 6.46604225e-002,
       -5.93537800e-002, -4.70485687e-002, -7.36395866e-002,
       4.84324805e-002, -1.34213746e-001, -9.78934020e-002,
       -1.02552697e-001, 3.50985192e-002, 4.75154296e-002,
       -3.82232293e-002, 9.74046737e-002, 4.76291589e-002,
       3.94014604e-002, -8.28325897e-002, 9.55296531e-002,
       5.03873900e-002, 2.12586224e-001, 9.64699164e-002,
       3.24119292e-002, 5.16770110e-002, 4.61456999e-002,
       4.33009006e-002, -2.67184004e-002, -6.25990927e-002,
       -2.30189804e-002, 1.88291699e-001, 1.05227858e-001,
       4.31318991e-002, 1.67094804e-002, -8.42192471e-002,
       5.91141693e-002, -1.05826020e-001, -4.85548414e-002,
       -8.37389827e-002, 7.77591467e-002, 3.72353308e-002,
       -1.20473437e-001, 4.86345543e-003, -1.05209023e-001,
       6.57178164e-002, -7.52813667e-002, -3.24565098e-002,
       -9.86906588e-002, -2.91747693e-002, -1.82932705e-001,
       1.48109451e-001, 9.24033765e-003, -4.35491391e-002,
       2.26688497e-002, -1.18727289e-001, -4.01658900e-002,
       2.83022895e-002, 2.25390479e-001, 2.05656439e-001,
       1.67017967e-001, 9.01992396e-002, 1.30065205e-002,
       9.76060033e-002, -3.67583111e-002, -1.93544794e-002,
       -6.89483508e-002, 8.07727724e-002, 1.90475374e-001,
       1.13122262e-001, 4.10604291e-002, -1.11871824e-001,
       4.31280583e-002, -1.85485795e-001, -1.12871736e-001,
       -8.79455134e-002, 2.07828097e-002, -1.52954862e-001,
       1.18063860e-001, -1.10321799e-002, -1.59711167e-001,
       2.15353798e-002, -5.23214713e-002, -1.08353168e-001,
       -1.39103666e-001, 5.92075214e-002, -1.01226017e-001,
       2.01742500e-001, 9.10579637e-002, -1.88134797e-002,
       9.55900997e-002, -3.72574516e-002, -9.44293067e-002,
       -9.76317376e-002, 5.85445389e-002, 8.28718171e-002,
       1.29198492e-001, 8.59435201e-002, -2.49806582e-003,
       2.39844006e-002, 5.67950122e-003, -6.29633963e-002,
       -1.29932702e-001, 3.85585204e-002, 5.18656000e-002,
       1.08399078e-001, -3.38046290e-002, -1.26548320e-001,
       -5.39933890e-002, -7.45680034e-002, -4.73623201e-002,
       -1.01642311e-001, 7.49613866e-002, 8.12521428e-002,
       7.65617713e-002, -4.99960296e-002, -1.28230765e-001,
       -7.69239515e-002, -1.13175243e-001, -9.11865532e-002,
       -5.69566898e-002, 1.04772091e-001, 7.46858120e-002,
       1.63004808e-002, -8.00961629e-003, -6.58212826e-002,
       -4.01909500e-002, -4.68290709e-002, -1.90784205e-002,
       -1.09977201e-001, 4.91140597e-002, 2.93102991e-002,
       4.19773497e-002, -5.77398017e-002, -9.67064127e-002,
       -3.59495096e-002, -3.40212099e-002, -7.14929923e-002,
       -1.05662003e-001, 1.06012858e-001, 6.34068921e-002,
       -1.51863201e-002, -5.96402306e-003, -7.62801170e-002,
       -3.52779147e-003, -2.68385392e-002, -1.02654941e-001,
       -2.68081501e-002, 1.63383812e-001, 3.10351495e-002,
       2.29697600e-002, 1.62434801e-002, -1.08316198e-001,
       -2.31423303e-002, -4.78996895e-002, -5.53070009e-002,
       -6.46131411e-002, 1.04945064e-001, 4.64285612e-002,
       -7.59295523e-002, -6.19790517e-002, -9.04215425e-002,
       -1.44552104e-002, -4.29781787e-002, -1.12620153e-001,
       -1.14305124e-001, 3.17454115e-002, -3.67748700e-002,
       -2.96399593e-002, -6.61016926e-002, -1.32920489e-001,
       -7.05906674e-002, -8.44411105e-002, -2.64053605e-002,
       -7.13625029e-002, 4.55996692e-002, 1.45998001e-002,
       1.79892510e-001, 4.43532802e-002, -1.24647297e-001,
       -2.87111495e-002, -1.07522093e-001, -3.39374207e-002,
       -3.79140787e-002, 2.54825093e-002, 1.95604991e-002,
       1.92456514e-001, 1.39632538e-001, -5.90469614e-002,
       -7.42462575e-002, -1.04118839e-001, 1.54176133e-003,
       1.79742891e-002, 1.30258441e-001, 4.54764217e-002,
       -5.71034886e-002, -1.06971607e-001, -1.34894371e-001,
       -6.51575476e-002, -6.40688613e-002, -4.08572936e-003,
       -1.33648301e-002, 4.36873697e-002, -1.12597197e-001,
       -5.70163503e-002, -6.46997094e-002, -8.34660232e-002,
       -4.16676998e-002, -5.79554290e-002, -8.24751109e-002,
       -5.74262813e-002, 8.45225379e-002, -3.35022397e-002,
       1.39808595e-001, 1.32522747e-001, 7.58961737e-002,
       7.53998831e-002, 1.21557973e-001, 1.90872893e-001,
       1.50507510e-001, 2.12502450e-001, 1.42067999e-001,
       1.29848896e-002, 7.45024532e-002, 6.55909702e-002,
       1.70055702e-002, 4.51297089e-002, 1.69506997e-001,
       1.02615774e-001, 1.63899824e-001, 5.50505891e-002,
       -3.45307700e-002, 8.62246230e-002, 7.93595389e-002,
       3.97626013e-002, 2.03609094e-002, 3.95744899e-003,
       3.26706506e-002, 1.52359188e-001, 1.29749402e-002,
       -8.10919404e-002, 1.40755801e-002, 4.40693414e-003,
       -1.51574180e-001, -1.13904782e-001, -7.48759732e-002,
       -7.81322457e-003, -2.74954494e-002, -1.01814076e-001,
       1.37557164e-001, 1.40072107e-001, 1.34825617e-001,
       2.75172353e-001, 3.42511088e-001, 7.63965696e-002,
       7.26860687e-002, 1.98238820e-001, 1.61357909e-001,
       -4.18646298e-002, -1.27841070e-001, -9.84628722e-002,
       3.16904113e-002, 1.09740824e-001, -1.50519222e-001,
       -8.91672596e-002, -7.13876709e-002, -4.15334888e-002,
       6.25418453e-003, 1.26665402e-002, 1.05332486e-001,
       1.27491444e-001, 1.51480526e-001, 1.49851302e-002,
       6.30594864e-002, -1.24712298e-002, -8.77840072e-002,
       -8.55187997e-002, -1.19551457e-001, -8.49357173e-002,
       -2.90162005e-002, -2.39485893e-002, -1.34273127e-001,
       -1.10532001e-001, -1.44132599e-001, -1.52032852e-001,
       3.97275984e-002, -3.72127310e-004, -4.20091897e-002,
       6.10510409e-002, 1.90497506e-002, -1.10619096e-002,
       -7.27445772e-003, -1.52034098e-002, 1.10228511e-003,
       -4.94918711e-002, -8.01309869e-002, 5.72071038e-003,
       8.41545388e-002, -6.52315170e-002, 3.66408117e-002,
       -2.67304201e-002, -1.20661542e-001, -3.70207392e-002,
       6.00657985e-002, 1.62868202e-002, -6.17772620e-003,
       8.19233879e-002, -3.41629819e-003, 2.87051201e-002,
       5.80714084e-002, 4.95998599e-002, 4.61825095e-002,
       -4.90162894e-002, -1.05795741e-001, 2.27444209e-002,
       1.20709613e-001, 2.23597488e-003, 9.83176529e-002,
       -3.01984791e-002, -1.11819699e-001, -4.96107489e-002,
       2.49892808e-002, -3.71499099e-002, -1.61965303e-002,
       2.64348593e-002, -7.62964319e-003, -2.88229007e-002,
       -6.24259412e-002, -8.43986124e-002, 7.22089335e-002,
       7.26395175e-002, 1.56157399e-002, 3.09196804e-002,
       1.70871206e-002, -3.79715115e-002, -3.18561122e-003,
       1.62402093e-002, -2.82857306e-002, 1.12844437e-001,
       -1.32280716e-003, -7.78485984e-002, -7.20909983e-002,
       3.37224193e-002, 1.21545292e-001, 2.27810405e-002,
       -5.27549982e-002, -1.91848408e-002, 1.29892930e-001,
       5.42440116e-002, 2.33308598e-002, 4.02902216e-002,
       1.23929180e-001, 9.49548930e-002, 9.19034034e-002,
       7.93588907e-002, 8.76816828e-003, 1.71484455e-001,
       -8.51302687e-003, -8.01124871e-002, -6.79628327e-002,
       4.88484502e-002, 1.11227203e-002, -7.83530623e-002,
       -1.14811445e-003, -3.44076008e-002, 2.84524299e-002,
       7.69554228e-002, -7.06953332e-002, -1.15178404e-002,
       -8.53884313e-003, -1.66278593e-002, -4.16386388e-002,
       5.40050492e-002, 2.85916291e-002, 2.92185191e-002,
       5.00313491e-002, -6.85718050e-003, -1.63261108e-002,
       7.78021663e-002, 4.04280983e-002, -1.21644000e-002,
       3.60914599e-003, -6.32243529e-002, 9.51672569e-002,
       1.28770307e-001, -9.69162490e-003, 1.03117898e-002,
       5.18089496e-002, -9.34659224e-003, -1.64453294e-002,
       -4.84934710e-002, -4.34323587e-002, 1.05147831e-001,
       8.04663524e-002, -4.61520515e-002, -3.97548601e-002,
       -1.48552498e-002, 1.30968302e-001, -1.51795000e-002,
       -6.57189786e-002, -4.01637182e-002, 1.84978601e-002,
       2.43967008e-002, 8.06725770e-002, 1.74824719e-003,
       7.05374703e-002, 8.81951824e-002, -5.08352555e-003,
       -6.55086264e-002, -8.26617032e-002, -7.78060481e-002,
       1.45345004e-002, -8.75689015e-002, 1.09650102e-002,
       -8.71319138e-003, 1.01104639e-001, 2.42076907e-002,
       -6.70838282e-002, 2.00781096e-002, 5.93133038e-003,
       5.39892316e-002, 7.53813833e-002, 2.04922706e-002,
       2.24258900e-002, 4.01106998e-002, -1.44875818e-003,
       -4.19115182e-003, 6.36765435e-002, 2.50693392e-002,
       2.43453607e-002, 5.87940514e-002, -8.22952855e-003,
       -1.24244103e-002, 4.22492586e-002, -1.75492298e-002,
       5.95816113e-002, 3.81888598e-002, -1.83036309e-002,
       -4.30891700e-002, -4.42219712e-002, -2.43272092e-002,
       2.26486605e-002, 2.03751423e-003, 1.19703095e-002,
       4.43920307e-002, 1.21692471e-001, 3.60271297e-002,
       -2.59925108e-002, -1.98226492e-003, 2.04633605e-002,
       -2.63905805e-002, -1.91242550e-003, -9.33466926e-002,
       -3.59515287e-002, -9.88179818e-003, -6.84844479e-002,
       -4.66630310e-002, -9.95573625e-002, -4.20643017e-002,
       2.60907505e-002, 9.09005292e-003, -7.13855103e-002,
       -4.22313227e-004, 1.76664498e-002, 2.75640395e-002,
       1.30827604e-002, 4.05289084e-002, 2.38751508e-002,
       5.33729792e-002, 2.50063092e-002, -4.97085303e-002,
       -1.24674447e-001, 1.76044032e-001, 1.22564107e-001,
       -7.51225427e-002, 8.70451052e-003, -5.69754802e-002,
       -3.62647399e-002, -8.76623299e-003, -1.21089704e-002,
       -9.45152193e-002, 7.49073178e-002, -2.00800095e-002,
       -2.68127806e-002, -6.46340474e-002, -1.51750697e-002,
       7.33757764e-003, 6.07147906e-003, -9.31696370e-002,
       -4.57532816e-002, 1.32615969e-001, 1.54248700e-001,
       -1.65591799e-002, -2.77238991e-002, -5.24364412e-002,
       -2.35645603e-002, -2.35175304e-002, -1.02116153e-001,
       -1.28730357e-001, 1.45497873e-001, 1.25198558e-001,
       4.38762689e-003, 2.79599205e-002, 5.17032184e-002,
       9.22359601e-002, 5.89001514e-002, 2.37670094e-002,
       -2.77734604e-002, 9.50690806e-002, 2.32893601e-002,
       -2.31992807e-002, -3.21869589e-002, -1.52784102e-002,
       -1.01669403e-002, -2.67471895e-002, 5.13717905e-002,
       1.98066607e-002, 6.54444695e-002, -1.74617097e-002,
       1.02637997e-002, 1.56180598e-002, 7.97004555e-004,
       7.60181025e-002, 1.90724991e-002, -3.08303498e-002,
       -5.98739199e-002, 9.24278274e-002, 1.45550251e-001,
       1.03582703e-002, 3.09240092e-002, -9.56270918e-002,
       -3.80235389e-002, 2.53114402e-002, 3.07944901e-002,
       -7.10071474e-002, 3.33072096e-002, -2.69116857e-003,
       3.16748992e-002, 5.74499890e-002, 3.25989500e-002,
       1.91266940e-003, 3.19457799e-002, 7.38977566e-002,
       2.19806004e-002, 7.63331428e-002, 3.29310484e-002,
       -9.10364836e-002, 4.71814200e-002, 6.10267185e-002,
       -1.00306300e-002, 5.85481385e-003, -1.52257401e-002,
       2.32352596e-002, 1.05843447e-001, 4.35879454e-003,
       6.10787310e-002, 5.86860292e-002, -3.11553106e-002,
       1.21467896e-002, 8.56705233e-002, 3.93926632e-003,
       -2.52148807e-002, -1.88425183e-003, 2.03805305e-002,
       -6.26854831e-004, 4.89743799e-002, -4.28058505e-002,
       -4.81968895e-002, -4.81286682e-002, -1.45118600e-002,
       5.10146916e-002, -9.01125465e-003, -3.33385915e-002,
       3.91795486e-002, 4.19644788e-002, 4.29213494e-002,
       2.80952901e-002, 2.99971495e-002, 4.08134796e-002,
       9.10039060e-003, 9.70323235e-002, 1.03797413e-001,
       2.34872494e-002, -4.72756615e-003, 1.02732498e-002,
       1.04026578e-001, 1.20718233e-001, 9.81729925e-002,
       -2.61203293e-002, 3.63841392e-002, 5.89640513e-002,
       4.86502498e-002, 4.79390994e-002, -3.88232097e-002,
       -2.96211708e-002, -1.22226803e-002, 4.07159701e-002,
       1.92277692e-002, -2.28786599e-002, 3.32838111e-002,
       1.85909197e-002, 9.02499408e-002, 3.80445495e-002,
       -1.42451003e-002, 1.95373893e-002, 2.50961706e-002,
       -3.39091383e-002, -5.66394106e-002, -1.64197907e-002,
       5.84859103e-002, 4.63966988e-002, 2.09211595e-002,
       1.29117906e-001, 1.99181393e-001, 7.73985535e-002,
       -7.25806039e-003, 4.07483801e-002, 3.18399295e-002,
       1.39251316e-003, -1.42862499e-002, 1.86547991e-002,
       8.52954090e-002, 1.35475099e-001, 1.11896612e-001,
       3.99890095e-002, 9.57593769e-002, -2.63110194e-002,
       -3.45825292e-002, -4.74998504e-002, -6.07071593e-002,
       4.71884012e-003, 6.44578934e-002, -2.45003793e-002,
       -5.48377596e-002, -4.65723686e-002, -2.03071702e-002,
       -3.48076597e-002, -9.39773098e-002, -6.39971793e-002,
       -1.80458501e-002, 5.62348310e-003, -6.64811488e-003,
       -6.51786923e-002, 6.96210237e-003, -1.86014809e-002,
       -4.24582995e-002, -5.85036688e-002, -3.24417115e-003,
       7.70069808e-002, 1.12909913e-001, 9.92302969e-002,
       -2.97059901e-002, 5.59241101e-002, 4.81397882e-002,
       -9.81119499e-002, -9.35799628e-002, -3.27611417e-002,
       5.21833785e-002, 4.14137505e-002, 3.92977800e-003,
       -5.04748002e-002, 1.59600839e-001, 4.61280011e-002,
       -3.11409794e-002, -4.65004407e-002, -3.24979499e-002,
       -2.42564101e-002, -4.31135483e-002, 4.30765897e-002,
       -9.40188318e-002, -4.74278517e-002, -1.25449896e-002,
       -6.59874082e-002, 3.41369561e-003, -5.62044494e-002,
       -7.28127593e-003, -5.99836111e-002, -3.27445008e-002,
       -7.37686828e-002, 3.19015374e-003, -7.73306936e-002,
       5.81586398e-002, -2.47107092e-002, 3.85061689e-002,
       1.38387844e-001, 1.53998613e-001, 1.73132103e-002,
       -1.47758601e-002, 1.03933409e-001, 5.15983291e-002,
       -1.94555502e-002, -3.42750289e-002, -4.86734100e-002,
       9.23748016e-002, 1.07327193e-001, 6.07144982e-002,
       -1.35507099e-002, 1.84435602e-002, -3.48080285e-002,
       -3.79667096e-002, 2.15628621e-004, -5.44018596e-002,
       1.88985504e-002, -1.44341299e-002, -2.60790195e-002,
       -2.93800104e-002, 2.72068903e-002, -6.22839704e-002,
       -2.97093596e-002, -3.42620984e-002, -1.02808759e-001,
       -6.73930421e-002, -5.22785001e-002, 3.36029194e-002,
       -1.12784408e-001, -6.96618035e-002, -1.39374331e-001,
       9.10932291e-003, 2.52020749e-004, -4.07359656e-003,
       1.23106390e-001, 9.34306011e-002, 7.30251074e-002,
       3.22209299e-002, 7.53287897e-002, 3.79238687e-002,
       -4.98518012e-002, 1.80460196e-002, 2.69419495e-002,
       1.34814978e-001, 4.60122488e-002, 4.10698205e-002,
       8.51105675e-002, 1.23146608e-001, 1.32082999e-002,
       5.04412092e-002, -5.52943908e-003, -8.99262428e-002,
       -2.24930104e-002, -8.18177685e-002, 6.16521314e-002,
       -3.25660296e-002, -1.06891999e-002, -1.32347299e-002,
       -1.19702317e-001, -4.61634696e-002, -1.20886810e-001,
       -6.76260591e-002, -8.67683366e-002, -6.43457472e-002,
       1.77252907e-002, 3.46961506e-002, -1.09266177e-001,
       3.01387291e-002, 1.40303969e-001, 1.61301076e-001,
       1.79855883e-001, 1.12819277e-001, 1.05306387e-001,
       8.90594795e-002, 7.73376375e-002, 6.69523776e-002,
       2.14208793e-002, 6.43887669e-002, 9.79445279e-002,
       5.74507192e-002, 2.78855693e-002, 2.63282992e-002,
       7.98580721e-002, 4.24902979e-003, 8.47890321e-003,
       -2.67946608e-002, -5.28812688e-003, -2.16258001e-002,
       -7.49071464e-002, -8.25133696e-002, -2.05657594e-002,
       -1.02619398e-002, -1.15492963e-003, -5.75720915e-004,
       -7.21059069e-002, -7.32098073e-002, -4.88331206e-002,
       -1.08971506e-001, -7.47725815e-002, -8.86713415e-002,
       -9.22243670e-002, -1.09246656e-001, -1.04302756e-001,
       7.95349926e-002, 2.76795905e-002, 1.13933593e-001,
       1.87795430e-001, 3.31342109e-002, 2.14370005e-002,
       5.85201606e-002, -2.12067598e-003, -3.76984011e-003,
       2.77416706e-002, -3.12460996e-002, 1.46514103e-002,
       1.61600392e-002, -1.39191300e-002, -4.40410189e-002,
       -5.44422716e-002, -1.46847308e-001, -1.50165871e-001,
       4.50946800e-002, 1.29563001e-003, 1.39835002e-002,
       5.61040416e-002, -4.86880615e-002, -4.77671586e-002,
       -8.16873740e-003, -2.30126386e-003, -2.28631292e-002,
       1.19833983e-001, -4.70326096e-002, -8.81444067e-002,
       -7.58524910e-002, -1.07996069e-001, -3.23208682e-002,
       1.50978602e-002, -4.84346412e-002, -3.96784618e-002,
       9.58941579e-002, 1.35255996e-002, -1.45811904e-002,
       1.05082896e-002, -3.03894598e-002, 1.60838794e-002,
       1.11975556e-003, -1.25065604e-002, 2.86211423e-003,
       4.33369093e-002, -1.46034971e-001, -1.94654297e-002,
       -2.32752506e-002, -1.97394397e-002, 7.94439986e-002,
       -2.22454406e-002, -6.70180768e-002, 3.47653218e-002,
       1.15055941e-001, -2.71280091e-002, -1.66511294e-002,
       6.31571636e-002, -8.20586011e-002, 7.43199885e-002,
       4.91577797e-002, -4.46875207e-002, -1.49040204e-002,
       7.40047619e-002, -1.16509013e-001, 5.10242991e-002,
       4.55911793e-002, -5.91603890e-002, 8.84075984e-002,
       -1.58790201e-002, -1.48901939e-001, 7.85778388e-002,
       4.71025407e-002, -5.38198315e-002, -7.33194500e-002,
       -3.60464305e-002, 1.56119704e-001, 7.64994323e-002,
       -5.95934801e-002, -2.77660694e-002, 1.10986881e-001,
       3.75887491e-002, -4.44687493e-002, 4.93318699e-002,
       1.34553500e-002, 6.92110285e-002, 7.36478493e-002,
       5.51895611e-002, 2.89958492e-002, 9.37583968e-002,
       1.05184339e-001, -4.42024097e-002, 1.91528201e-002,
       -3.56386811e-003, 1.45868778e-001, 1.02861010e-001,
       -4.36062589e-002, -1.27232373e-001, 9.07638595e-002,
       1.11198418e-001, -6.03501312e-002, 9.67481732e-002,
       8.93824324e-002, 7.06592426e-002, 2.60317996e-002,
       5.84815582e-003, -5.92206493e-002, 1.23603091e-001,
       3.59695964e-003, 2.99844006e-003, 3.69793586e-002,
       2.04307195e-002, 4.16872501e-002, 1.02597503e-002,
       -1.35997999e-002, -1.60092004e-002, 2.58105602e-002,
       2.32925005e-002, 2.98100687e-003, 1.62976198e-002,
       6.65211529e-002, 5.85562699e-002, 1.23746302e-002,
       -1.29713500e-002, 1.76158696e-002, 5.09086512e-002,
       6.54934198e-002, -4.42594513e-002, 2.43203156e-003,
       3.07327788e-003, 6.67862967e-002, -4.30383608e-002,
       1.08239297e-002, -6.47604391e-002, 4.07778583e-002,
       1.24419793e-001, 8.23777765e-002, 7.42416531e-002,
       4.06588987e-002, 6.90554306e-002, 9.55634713e-002,
       1.27248749e-001, -2.13208199e-002, 8.51415396e-002,
       -4.17532809e-002, -2.66695395e-002, 1.89783592e-002,
       3.31738181e-002, 9.45465732e-003, -1.23897400e-002,
       -4.24249992e-002, -1.41947903e-002, -3.54521312e-002,
       -2.44087409e-002, 8.68411884e-002, 4.21295092e-002,
       2.46285796e-002, -1.10482499e-002, -5.01706870e-003,
       2.96898205e-002, 2.59747598e-002, -1.56893898e-002,
       4.51489203e-002, 6.97454885e-002, 8.67027789e-002,
       6.82810768e-002, 1.02388717e-001, 5.40595688e-002,
       6.54847026e-002, -3.76395695e-002, 1.36609003e-002,
       7.06960186e-002, 5.36374785e-002, 4.79811989e-002,
       1.17064223e-001, 5.46645597e-002, -1.86925903e-002,
       6.34438172e-002, 3.10654305e-002, 8.43250602e-002,
       -2.06109602e-002, 3.82108800e-002, -6.92190882e-003,
       6.40467042e-003, -1.27177900e-002, 6.89014705e-005,
       4.54141498e-002, -1.89953893e-002, -5.02023883e-002,
       3.00090294e-002, 1.09042199e-002, 4.52452758e-003,
       2.57363208e-002, -2.38845404e-002, -4.20045704e-002,
       1.72783900e-003, -5.97837009e-002, -2.72056200e-002,
       6.57371506e-002, 1.15431696e-002, 1.26561504e-002,
       7.37599432e-002, -9.19828378e-003, -4.91411984e-002,
       2.12483108e-002, 6.45532236e-002, 4.37291004e-002,
       -3.31004299e-002, 3.60578783e-002, -6.78055827e-003,
       9.36202332e-003, 1.74759608e-002, -6.40631393e-002,
       -6.81293532e-002, 8.08081627e-002, -2.77808793e-002,
       2.73525994e-002, 6.39349297e-002, 6.65222928e-002,
       5.67699298e-002, 8.64001811e-002, -7.59188086e-003,
       -2.01284699e-002, -4.74115908e-002, -1.65706892e-002,
       -1.62439905e-002, 5.54777794e-002, -2.33309763e-003,
       1.12003302e-002, 6.14115596e-002, -6.28500432e-002,
       -8.73234123e-002, -9.31339785e-002, -4.26783189e-002,
       5.57443965e-003, 4.80986200e-002, 1.77364107e-002,
       5.37361018e-003, 1.48424208e-001, -6.29801229e-002,
       -2.93514691e-002, 1.14434779e-001, -5.03420793e-002,
       5.65494271e-003, 2.07652599e-002, -4.57798392e-002,
       -4.73574102e-002, 2.96107102e-002, -9.30712670e-002,
       -4.41792086e-002, -4.99002710e-002, -3.94002795e-002,
       1.30601600e-002, 6.26790002e-002, 3.75873707e-002,
       8.46011713e-002, 1.38587892e-001, 4.86238785e-002,
       -6.31980896e-002, -5.65551594e-002, 1.88581608e-002,
       -3.28560695e-002, 3.37156691e-002, -7.04092830e-002,
       -4.51404899e-002, 1.39216604e-002, 8.18442181e-002,
       -7.23031610e-002, 2.38687098e-002, 2.18459107e-002,
       2.60576401e-002, -1.03395404e-002, 9.29878280e-003,
       7.67351175e-003, 1.51892424e-001, 2.06907094e-002,
       -9.73829627e-002, -8.89410526e-002, -7.76874796e-002,
       2.33226791e-002, -1.77899506e-002, -3.25888805e-002,
       -8.18082169e-002, -8.49298686e-002, 2.29015592e-002,
       -1.13681696e-001, -3.55446488e-002, -4.53384407e-002,
       -2.86158007e-002, 6.78242370e-002, 1.11312298e-002,
       2.45364401e-002, 1.27219453e-001, 8.08481425e-002,
       -3.60779501e-002, 1.10912202e-002, 4.80354801e-002,
       -3.48992907e-002, 3.39953601e-002, -5.68201393e-002,
       8.59533902e-003, -4.27904585e-003, 3.23088691e-002,
       -1.30019803e-002, -1.03813699e-002, -7.93011263e-002,
       8.33097473e-003, 2.29699407e-002, -1.30650001e-002,
       -1.88162606e-002, 4.41336893e-002, 5.72988018e-002,
       -3.76155302e-002, 1.94232594e-002, 1.64540811e-003,
       -3.81131917e-002, 4.19064984e-002, -1.49780959e-001,
       -4.51448709e-002, 1.20954504e-002, -5.46460645e-003,
       -1.64719503e-002, 7.63064111e-003, -7.49458671e-002,
       8.41528773e-002, 1.00201413e-001, -1.22856097e-002,
       6.55382574e-002, 4.55400497e-002, 7.89041668e-002,
       3.04113794e-002, 1.75200701e-002, 9.20825601e-002,
       -3.74419295e-004, 1.05495267e-001, 4.68691289e-002,
       1.89483296e-002, -2.65141204e-002, -4.34682379e-003,
       5.44942822e-003, 1.44448401e-002, 5.88215590e-002,
       -3.33654396e-002, 4.60389107e-002, -1.04325458e-001,
       1.92392804e-002, 1.84284505e-002, -1.71216801e-002,
       -2.22276598e-002, 4.69332412e-002, -6.20295592e-002,
       -1.42215900e-002, 8.73221979e-002, -7.70610720e-002,
       2.66104899e-002, -4.30023782e-002, -3.09242196e-002,
       -3.55218388e-002, -1.88608803e-002, -4.97993417e-002,
       3.90640087e-002, 4.60864417e-002, 4.96611111e-002,
       4.27546389e-002, -4.62176912e-002, -2.65321191e-002,
       8.57011229e-003, 3.83968391e-002, 5.81876412e-002,
       3.88079584e-002, -2.76100676e-004, 3.07651106e-002,
       -3.26692909e-002, -5.37455715e-002, 4.98652682e-002,
       -9.45429131e-003, 3.58249918e-002, -2.64564669e-003,
       -1.07461517e-003, 2.96231303e-002, -1.48336301e-002,
       3.06086894e-002, 2.44832691e-002, 1.84564106e-002,
       3.28296609e-002, -3.53443809e-002, -1.08405901e-002,
       -1.11913597e-002, -1.85360224e-003, -5.94652840e-004,
       -4.45181690e-002, 2.98327743e-003, 6.27248436e-002,
       -2.15207599e-002, -3.05971340e-003, -5.07082790e-002,
       1.53176198e-002, 1.28281498e-002, 5.16715012e-002,
       9.46266949e-003, -3.34558333e-003, 1.14422880e-001,
       -3.90670113e-002, -2.67325155e-003, 3.06918398e-002,
       -1.13416500e-002, 2.94946209e-002, 2.87988596e-002,
       3.85556594e-002, -3.45078111e-002, 9.14287195e-002,
       -2.15665400e-002, 6.07506186e-002, -6.22081608e-002,
       1.94467995e-002, 6.68372354e-003, -6.65679574e-002,
       8.70784000e-003, 3.45601290e-002, 2.43432000e-002,
       -1.32363573e-001, -4.17703502e-002, -2.06962693e-002,
       1.06811197e-002, 1.50543200e-002, -7.51739070e-002,
       -3.83571628e-003, -6.29850775e-002, -2.88126003e-002,
       -1.31010458e-001, -7.22156167e-002, -5.79945277e-003,
       -8.57300125e-003, 3.78246903e-002, 2.76216399e-002,
       4.94245589e-002, -2.93639600e-002, 9.59721133e-002,
       1.92141104e-002, 6.10119104e-002, -4.78750691e-002,
       -1.37957800e-002, -7.40224449e-003, -2.22013593e-002,
       -1.31375603e-002, 7.77558051e-003, 1.22969680e-001,
       2.93999799e-002, 3.59406210e-002, -7.78862387e-002,
       -1.13314399e-002, 3.99316690e-004, -6.09034710e-002,
       -1.12206601e-002, -4.68682544e-003, 7.63309970e-002,
       -6.74892217e-002, -5.64029813e-002, -5.26568107e-002,
       -1.13912197e-002, -1.62434708e-002, -4.71571386e-002,
       -1.09909195e-002, 1.04856100e-002, 3.28499987e-003,
       -5.81016690e-002, -7.69991130e-002, -3.33068296e-002,
       4.18514498e-002, 3.47853601e-002, 2.27516498e-002,
       2.30476595e-002, 6.66040834e-003, 1.09681480e-001,
       -5.93013782e-003, -4.85833585e-002, -4.20321301e-002,
       -9.31678563e-002, -6.13074889e-003, -2.54462492e-002,
       1.36620104e-002, 9.18555818e-003, -1.84657797e-002,
       -5.62240109e-002, -3.98937687e-002, -7.81029612e-002,
       6.91275718e-003, 5.95759712e-002, -3.90133411e-002,
       1.57200191e-002, -1.19390301e-002, -6.89400872e-003,
       -3.09335608e-002, -4.13609818e-002, -1.56286899e-002,
       -4.60457988e-002, 2.86523402e-002, -8.67844671e-002,
       -3.23248394e-002, -5.36459312e-002, -1.44501599e-002,
       -7.00386018e-002, -8.66974592e-002, -4.52077501e-002,
       4.27412204e-002, 3.11751496e-002, 8.17570314e-002,
       1.08110895e-002, 6.37974069e-002, 6.19920604e-002,
       2.86598802e-002, 2.36034598e-002, 6.72541037e-002,
       -3.24877985e-002, -9.37702879e-003, 8.26589763e-002,
       -2.24583894e-002, 5.12576289e-002, -1.86239500e-002,
       1.97345298e-002, -1.99449398e-002, -1.07708678e-001,
       3.18037495e-002, 3.23935156e-003, -2.14207992e-002,
       -4.25618999e-002, 4.76090014e-002, 4.28286307e-002,
       5.63595295e-002, -1.87084898e-002, 5.54062203e-002,
       -3.04266606e-002, 1.45527702e-002, -6.63017929e-002,
       -5.84380701e-002, -3.73968109e-002, -9.73915532e-002,
       -3.22023295e-002, -5.62018193e-002, -1.03814013e-001,
       7.40021095e-002, 4.20676917e-003, 3.25853489e-002,
       2.14308966e-003, 5.12196608e-002, -1.27433697e-002,
       2.38476098e-002, 6.33557811e-002, -7.90559128e-002,
       8.37562531e-002, -7.89890289e-002, -6.50852770e-002,
       -2.49844398e-002, 6.53581023e-002, 3.97053510e-002,
       4.89546806e-002, -1.16956597e-002, -3.98060083e-002,
       5.68229295e-002, 5.92546314e-002, -1.16580799e-002,
       -7.93669894e-002, -4.20895405e-002, 1.33398697e-002,
       9.05119628e-002, 1.00986712e-001, -3.97425592e-002,
       1.23877097e-002, -7.50174075e-002, -3.65543999e-002,
       -4.30152789e-002, 9.21685994e-002, 4.63579083e-004,
       2.85111498e-002, 2.14273501e-002, 1.28244064e-004,
       2.87968703e-002, -8.55488926e-002, -4.83886190e-002,
       8.13536867e-002, -5.75653315e-002, 1.41390003e-002,
       3.45188007e-002, -6.61948770e-002, -3.05313002e-002,
       2.96167601e-002, -7.38463476e-002, 1.13569200e-002,
       5.28391004e-002, -7.77803436e-002, -2.10748203e-002,
       -5.51171601e-002, -1.34737521e-001, 3.03015709e-002,
       6.72202036e-002, -6.21881709e-002, -5.82682714e-002,
       6.25465363e-002, 2.89577208e-002, -1.66400000e-002,
       -3.62027995e-002, -1.61227807e-002, -1.46097376e-003,
       1.40134111e-001, -8.96181818e-003, -3.25024612e-002,
       3.38630192e-003, 2.64779478e-003, 3.35973203e-002,
       -2.41199099e-002, -4.22972888e-002, 1.06661737e-001,
       -6.66579151e+000 ]
